的 -0.7330478 -0.9676221 -0.799865 0.31486747 -0.22976144 -1.1494037 -0.55289584 0.5295651 -0.8184194 0.00492409 -0.8510476 1.1518286 0.78994304 -0.6187316 0.22655113 -0.72277164 0.29014805 -0.7377498 -0.74356997 0.9904469 -0.997047 -0.17985663 0.6465856 0.34436032 -0.078266166 0.13240537 -0.7841002 0.3098564 -0.4156604 1.8617404 0.6422837 -1.2481662 0.70660174 -0.36041898 0.20519227 0.5048573 0.53967625 0.21624707 0.83351606 1.8907726 0.7776621 0.14722447 -1.0311576 -0.04862963 0.20878778 0.11678115 -0.47841436 0.18677875 0.15930982 1.3243068
， -0.13776231 -0.14877965 -1.51397 -1.9977124 0.7059854 0.065147564 -0.54437464 0.40456572 -0.43550658 -0.6328393 0.9235012 0.5359532 1.0721617 -0.31906936 -0.2766078 -1.1003395 0.7049247 -0.74850273 -0.39988402 0.001707143 -1.2745817 0.9118076 -0.45357478 0.28173655 0.15102194 0.3909721 -0.49739382 1.8055965 0.42326012 0.6572735 0.07974273 -1.4675906 -0.6127355 0.4154026 0.27655107 1.1672466 1.1965053 -0.12999508 0.95240396 0.72084016 0.22315672 1.5928497 0.53458947 0.5335335 1.2951113 0.5634523 0.17694251 -0.5702028 -0.39416963 0.811147
。 -0.0045425743 -0.3589784 0.36449885 -0.9461972 0.20808047 -0.03379752 -0.047102198 0.05944598 0.8182507 -0.7729504 0.698476 1.0517533 1.2710308 -1.1617466 -1.8907413 -1.8410953 2.5237837 -2.0417342 1.1273965 1.200076 -0.7614652 0.30329135 -0.8893187 -0.13248028 -0.00491796 0.6352038 0.22772941 1.7162327 1.4466008 2.2487772 -2.416438 -1.7198231 0.1020542 1.127658 -0.7890291 -0.33603945 0.081740595 0.08118282 -0.22153239 1.7546382 2.1807537 -0.7209104 0.8372884 -1.1484363 0.7033018 0.5927521 0.31542492 -0.43301538 1.0764507 -0.39132732
法 1.2827598 0.5200622 0.7036665 -1.4776646 1.5680182 -2.7110717 -0.11636178 -1.8890603 -1.7479645 -0.17254427 -1.6769968 -0.8361459 0.5187797 0.5986569 -1.8461137 -1.9955586 -1.0149148 0.468604 0.5658013 2.2502286 1.4288422 0.13307208 -0.99338394 0.16418983 -0.68366945 -1.1323391 -0.13322301 0.5793488 0.95039165 2.519072 0.27396065 -0.25593883 2.3550045 1.0454824 0.63331515 0.57423997 0.43265304 -0.42683703 2.0111673 0.44471446 0.3769712 -1.4026115 0.27471858 1.9809668 -1.1366088 -0.5324087 -1.6363788 -1.5201949 -4.0124865 0.91044164
人 0.17042363 -0.21235353 0.022660365 0.27054453 -0.25646898 -1.1311809 -0.8845133 -0.2736395 0.09904453 0.76460433 -1.2097516 0.73529774 2.3153555 2.093497 -0.4220565 0.8641199 1.2859384 0.8991496 -1.1865506 0.61076933 -0.7167919 0.2883487 -0.8765664 1.2019471 0.07665509 2.963372 -1.1399742 -0.022048736 0.76844525 1.1149465 0.045655243 2.2801445 -1.5037928 0.26362035 0.44720542 0.33966556 -1.0261655 1.6659898 0.83073395 -0.23226619 1.3288463 1.6871606 -0.6037049 -0.21928112 0.19055882 -0.2891712 1.8215864 -0.23818493 -2.4834352 1.6222572
是 1.2719572 -1.2697766 0.5084608 -0.86176884 1.4642329 -2.3286095 -1.4896704 1.6917343 1.6604624 -1.6941272 1.1297612 -0.26600748 0.4135468 -0.46818313 -1.4942495 -0.2324274 0.91190124 0.48526928 1.1910037 1.1372937 0.4417096 1.8556024 0.23874485 -0.5730848 0.86507136 1.2825631 -1.0583235 0.4154324 -0.5952614 1.932229 -0.15420704 -2.0558643 -1.3805815 0.89603907 0.19732839 -0.06665477 -0.014472915 -0.3491744 0.0018703887 1.2280024 -0.52181184 0.14776418 1.2741302 -0.6540161 1.3570336 -0.078876935 -0.7287874 0.06593784 -1.2699376 0.6221457
、 -0.71900094 -0.2405909 -0.32389075 -0.01837316 -2.7969382 3.232707 -0.08480737 -0.13730505 -0.5927641 0.7424389 0.4129339 0.94974244 0.38958323 0.6017116 0.096131 0.18284397 -0.21398142 0.14276877 -2.7373736 1.6412467 -0.64577377 0.1063874 0.55361724 -0.30977586 0.57284003 -2.2729242 1.3749979 0.7357248 0.23916602 0.1817249 -1.2319779 0.04473797 1.9147731 -0.6383993 -1.1168498 1.0822184 -0.06147619 0.09852691 -0.5004232 0.18856366 0.7468448 -0.7688413 0.4820194 -1.09091 1.1214346 0.34241766 0.2020634 0.58988595 -0.7711033 -0.76056874
' 0.18878514 -0.56615007 1.083086 1.4989251 0.42172396 -0.40930337 0.8922038 -1.0171882 2.1003163 -0.039230347 -0.5420638 -0.46925107 -0.17536157 -2.5744245 -2.153468 -1.4445332 2.8363962 -1.3582782 1.9256424 3.1138985 1.1104838 0.15619749 -0.03648252 -1.0385475 1.0309981 0.0005283851 0.6034658 0.15054892 -0.48246467 2.8351443 -1.6540874 -0.85530585 -0.37899274 1.3379567 -2.244081 -2.4452767 -1.1663417 -0.66284126 -0.97382736 2.5734224 2.7868066 -2.8296828 0.06327398 -2.7790542 -1.9771883 -0.4596216 -0.93186116 0.82076734 1.3626146 -0.23387061
行 0.7907734 1.449633 -0.4101008 -0.6969627 1.8643653 -1.4164428 -0.09019328 -3.3396375 -0.07379652 1.5899284 0.74303466 -2.341824 1.0867425 0.61378765 -0.6690547 0.18798114 2.9230533 1.5598105 0.4852805 2.3252683 0.55689424 -1.8072393 0.34484243 -1.0587254 -0.55785835 1.3030037 0.435425 1.1999615 -0.20029794 1.1724404 4.013736 -2.6500757 0.6980779 0.6000862 0.26387364 -0.51107943 -2.0330095 1.3083324 1.5116991 1.7771573 2.156726 1.9054081 -0.5965897 0.75479555 1.3955293 -0.44734257 2.0830894 -0.44221938 -0.41031477 2.08175
为 1.6726433 -0.94850236 -0.4780311 -0.28454792 0.6306269 -1.0182182 -0.9601261 1.7196783 -0.1992732 0.59985304 -1.5237316 1.505851 1.3132974 1.76151 -2.348254 -0.97513866 -0.7941226 -1.5180042 1.464291 -0.14453995 -0.96377015 0.6800747 -0.918751 1.3808799 0.23128176 0.594779 -1.7112302 -0.844708 1.0203755 1.2645422 1.6034225 0.60931855 0.14030196 0.46123663 1.208789 0.038527947 -0.31400385 -1.9049178 0.22593698 3.0880463 0.6496965 0.38484043 0.98833233 -0.291905 -1.3949157 0.49192002 -0.6150128 0.6722194 0.26672804 0.5146651
有 0.6805145 -0.6091692 0.49874452 0.32808492 -0.025418427 -1.2359508 -1.7790778 2.626085 1.038214 1.0901256 -0.41534513 1.8057151 0.16856912 0.08502598 1.1357316 -1.1391999 -0.5079232 1.7798045 2.5411131 2.5592237 -0.9650529 -0.53709805 1.2486475 1.5945568 -0.4719743 1.8639883 -0.06443518 1.3463646 -1.686975 1.9615778 3.1678245 -2.248287 0.11143968 -0.17250669 0.79871595 0.47291237 0.6469127 0.50839376 -0.8513806 0.7679356 -1.1191685 -0.6174523 -1.074304 0.8503455 0.36562404 0.22602779 0.14869179 0.17914674 -2.6381633 0.78236306
定 0.90585303 2.067715 0.6209506 -1.4355603 0.91868186 -0.71667016 -2.2266543 1.1918035 -2.107098 -0.07673557 -0.24842753 -0.03449526 -1.1972016 0.4462142 -0.26651832 -1.2995702 -1.8856542 -0.22581142 -0.58140254 -0.22382705 0.014818174 -2.176862 -1.1386058 -0.85158986 1.6770601 3.8209467 1.2634408 0.32565 0.3508103 3.5835803 0.9725352 -1.259639 1.3551697 0.54096097 -1.1648409 -2.247539 0.11501806 -0.67739505 0.95177907 0.5577939 -1.4027319 0.70544314 -0.1867899 1.2374158 0.5388293 -0.69130635 -0.66980827 0.57706946 0.2616324 3.7786129
权 0.7221102 -0.30890417 0.5369593 0.44591498 1.167905 -0.77192044 -0.78013635 -0.7032007 1.5542145 -0.023892066 -0.5429895 2.7572343 1.6029966 0.5195779 -0.47220522 -1.8185949 1.6216066 0.35798216 0.06934192 0.6002581 0.23611358 -2.6176395 -0.48282894 3.134068 0.42900607 0.8488448 0.92800313 1.4096404 0.94543976 3.6102736 0.39687124 1.2165241 -1.0219415 0.11354782 3.3469846 -1.3844868 -1.7431631 0.31679302 3.6472714 0.8140373 1.110094 0.27156186 -2.0515678 -0.02556291 -0.44429466 -0.43937448 -0.45352983 0.9804745 -2.6434224 0.21739519
国 -3.5487432 -3.7477522 0.82483315 0.04379884 1.2451413 -1.2149671 1.030683 0.07247636 -2.6353152 -2.0228465 -0.035490185 -1.1308173 0.73302317 0.5407352 -1.3563399 -2.2851586 1.4123331 -1.0874107 -0.9382503 -0.030212082 1.2196903 -1.2705767 1.0376856 0.49568796 1.7660397 0.1372928 -1.1174886 0.24224377 3.1434221 1.0715419 2.2472136 -0.5698312 -0.5596399 0.06366804 1.798586 -2.7362087 -0.5102059 1.8334554 -0.5550884 -1.5596701 -0.5617083 -1.8836972 0.18260495 2.1211457 -0.84004956 -2.0687244 -1.528063 -1.7365307 -2.7414038 2.6410346
一 -0.3352076 -1.3239719 0.30747432 -0.43716076 1.4792289 -3.7888064 0.052958097 1.9094049 0.4002847 1.0031847 0.35975257 0.8588982 -2.2025533 -1.4115015 -0.48001763 -2.3071623 2.8950748 1.1448004 0.08686993 1.946323 -1.8407447 0.67404 -1.8431438 1.2053952 -3.5948088 0.32518455 -2.6023352 -1.1591712 0.7941466 -0.2663425 -0.253259 -1.2262168 -0.28955123 -0.35585225 1.0829659 2.005993 0.04820951 -0.17484237 0.7677711 1.1139249 1.3255275 2.1938345 0.24862109 1.5032777 0.30352718 0.91072303 -0.62506807 -1.1460518 0.003918246 1.7645855
和 -1.3994504 -1.0578803 -0.13815658 0.21631774 -1.2752166 0.001834498 -0.9751389 0.30363795 -0.814872 -0.4923407 -0.29720786 1.5361159 1.1004862 -0.20368172 0.18951476 -0.11556811 -0.1596962 -0.40410715 -1.6130283 2.437237 -0.07012031 0.6546443 0.48922747 -0.8446326 0.53570193 -1.3351953 0.8804361 0.74065804 1.0502939 2.280332 -0.672577 -0.90650636 0.54962415 0.022776395 -0.7287084 1.6055127 -0.033568993 0.37971592 0.933569 2.471228 1.1658087 -0.59580874 -0.532735 -0.14098106 1.2921679 0.42222446 -0.33833003 -0.3018698 -0.5290733 0.73298407
, -1.6022974 0.31347874 0.30559385 0.18679091 0.55841315 -0.7665134 -1.133543 -1.1880403 2.034999 -3.0337224 1.0807873 0.3123217 1.568077 1.8353095 1.6680523 0.5290258 3.8411026 -1.7911625 -1.5070508 4.3414135 1.5891552 0.7805678 0.41888523 -3.2070024 -0.6923901 0.6442465 -0.0987337 0.90697277 -0.15871738 -0.04296467 -1.4539438 -0.5724883 1.6343303 -0.37562567 1.3540485 0.056580618 2.4580655 -2.0415401 3.6684377 1.6830579 3.5513878 -1.5416061 0.5457503 -2.1597345 -2.0159886 -0.37513864 -2.8660252 0.53091764 3.2018049 -0.68326175
事 -0.34730616 1.3261293 2.0978138 1.1057886 0.13079615 -1.9515104 -1.0085195 -1.5623572 -0.16097574 0.05136382 0.4517561 0.9980232 1.4646697 0.5543465 -2.0390851 1.5999277 -0.2296436 2.2147598 -0.18372913 0.21173087 -2.5413888 -0.2957831 -0.48858863 -1.5080209 0.23036355 1.1328286 -0.92492604 -1.5942619 0.97074085 2.6641939 -1.0972011 -1.8662242 -0.48631513 0.1666388 -1.7282043 -1.030982 -0.6203721 -0.82371724 -1.2428582 2.939395 4.39759 0.06943359 0.125404 3.837833 0.75734335 -1.7024114 0.06611733 -0.8873089 -4.0061193 2.5905418
或 -1.570143 -1.5285088 -1.9203486 -0.38598514 -3.0802243 1.5507965 -1.6647364 0.87033993 -0.35644314 0.47446358 0.3647372 0.28882208 -0.42758867 1.9203318 0.26188466 0.59940755 0.9116857 1.161432 -2.696962 0.33441496 -0.96866435 0.033108458 -0.93642044 -0.23584874 0.077608675 -0.61392987 -1.6251086 0.057772502 -1.8751597 1.5489898 0.6192393 -0.6448029 -1.1270604 -1.5649346 -0.3857682 2.1447613 -0.47687915 0.9438122 -1.5933127 2.525283 0.69471955 1.6336541 -0.86397386 -0.542952 1.2833977 1.3906505 -0.8285046 1.2960311 -1.2592528 1.0876455
以 0.36041117 -0.11923327 0.46727893 -0.48821205 0.91265255 -0.097767346 -1.4934721 3.2131639 -0.1919919 -0.6860927 0.8353616 -1.8044375 0.38160124 0.36616275 1.7030284 0.39239708 -1.1075598 2.9942575 -0.8694489 0.9878412 -1.7183129 -0.7255361 -1.2781261 0.4041675 -0.92101145 1.8730093 -1.0270561 0.020446017 -1.7181906 0.85548586 0.5220717 0.86586356 -0.20624292 -0.19365416 1.2198418 0.5250366 2.1475554 -0.82758784 1.8139439 -1.199115 0.23643506 0.1801882 -1.3927857 -0.8571444 -0.15742475 1.0063325 0.35796043 -1.0277226 -0.1487591 1.0412863
不 0.63566774 0.31309777 -2.6159053 -1.6099743 -0.12447405 -1.1311866 -0.10102185 -0.6038655 0.1598192 -0.49308872 -0.07017271 1.1659256 0.8047584 -1.1343509 0.20248485 0.09405481 -0.42620102 -0.08484921 1.6648248 -0.15686755 -2.0770216 0.25733906 0.074163154 1.6846508 -0.8219119 1.445576 0.7414361 -0.41628608 -0.910154 -0.9477535 1.856272 0.055033263 0.6385699 -1.0056496 0.22634555 -0.42832333 0.8902935 -0.8272809 0.21143825 0.88787997 1.3675284 2.1045709 -1.4734596 0.014427905 -0.49345952 1.8331435 1.052754 -0.2134869 -0.08926086 3.2114162
罪 1.3801229 -0.5136297 -1.108933 -2.2225075 1.01916 -2.5613427 -0.8705273 -1.583139 1.6178247 0.712273 -0.18411733 -3.5420532 1.0265934 1.3645332 -1.7714485 0.16216077 -0.4230951 -1.5474098 1.051241 1.0370898 -0.86243665 -0.20842506 1.4857614 1.2282718 -0.04582082 -0.037457176 -1.996825 -0.6326796 0.5276198 0.43458474 0.27440435 0.78490263 1.3167909 -0.94509786 0.43646702 1.0038024 0.6954299 0.20118138 -2.9956615 -0.97042495 2.3164628 2.578151 3.5881784 -2.0385535 -1.2208858 0.78237575 -0.62443554 0.23953284 1.6886368 0.030201552
在 -1.380483 -1.92577 0.25784826 -1.0918497 0.17527486 -1.8213238 -0.14093024 0.63673073 -0.8953623 -0.83336234 -1.0078247 -1.1249074 0.07511588 -1.2001147 0.9658825 -0.7329956 -0.4463339 0.23797467 0.4173502 1.5378716 -0.6211638 0.027525963 0.2660162 -0.02874513 -0.51538587 0.36485687 -1.948399 1.1234661 -0.54831713 0.6682832 0.38874772 -1.2234837 -0.021782644 -0.59689194 0.47384977 0.31568354 0.90093726 1.1631427 0.69181097 0.6548038 -0.2670975 0.2164092 -0.57409126 0.9520151 1.9952621 0.7314656 -2.234209 0.44010186 -0.940591 1.6019676
民 0.34253693 -0.76802593 2.1786466 -3.6391695 0.5272237 -0.38727537 -0.7880985 0.41482174 2.3173342 0.60279536 -3.5609152 1.0922931 0.90076554 1.3013605 1.1752827 0.07672891 1.8889736 -0.35630178 2.1019723 2.1974568 2.1448114 -1.0570868 0.06345651 2.2759879 1.2528394 -2.570279 -0.8725059 3.801245 2.343851 1.3091519 -0.1255098 1.85827 -1.4059544 -0.09474136 -0.036774665 -1.8889809 1.2172498 1.4994006 1.593186 -0.108017616 -0.31375 -0.5971752 -1.9880466 -1.1298348 -0.7639792 1.2495948 -0.035494182 -3.4788675 -1.7105858 2.0116563
指 -0.4624704 -1.6461706 -2.162743 0.08646529 -1.0376065 -0.20342542 0.10603924 -0.37698358 -0.23524773 0.8939741 0.027219756 0.16302513 -0.71257013 -0.8403933 -1.019128 -0.54889965 1.2620344 -1.1103371 -0.77116555 1.6528957 0.89844656 -2.391398 2.199555 1.0527796 0.10475296 1.5484728 -2.5164406 -0.064190835 0.7991666 -0.5377804 -0.39718467 0.53747356 -1.5128758 -0.26865384 -0.25069514 0.79061896 -1.3594354 -1.6718762 0.29487106 1.3521005 1.9734612 -0.6830293 0.34578943 0.1482854 -2.6843278 -0.53508884 0.19371071 -1.7551368 -1.3244091 1.0212922
中 0.35989922 -0.76646835 -0.13450629 -1.4258453 -0.43165746 -2.4429154 -1.2344284 0.544239 -0.8497172 0.41693825 -0.51154894 0.44378096 0.017188475 -0.7317131 0.84706813 0.33419007 0.780681 -0.1495496 1.6722395 0.38004372 0.46607658 -0.23063461 -0.68887603 -1.0268869 0.3160163 -0.6755838 0.24871093 1.0417145 1.6679211 1.7994854 -1.0605329 0.50414217 -0.43154487 0.9703417 -1.8568506 0.26060185 -0.49781957 1.0720128 -0.50750315 1.9439138 1.2073433 -0.022903917 1.1172785 1.7336628 0.6119232 -0.17300563 -0.85054576 -0.9019946 -0.96651524 0.93069535
对 -0.916547 -0.68418545 -0.3960844 -1.4688245 -0.6515186 -1.8511652 0.19207582 1.5149176 -0.9414715 0.4527942 -0.083583996 -0.7425646 -0.4661226 0.49072212 -1.1675161 -0.8714618 0.2764324 0.4671955 0.87431985 -0.29296324 0.32703495 -0.45098865 -0.29989156 2.2289197 0.6301277 -0.6991461 -1.2042329 0.17592777 0.9090796 1.412061 0.042237975 -1.8799533 -0.07792196 -1.6046314 0.66940796 1.6010332 0.5783956 0.7373611 1.8692036 2.001982 2.0137577 0.8671522 0.42682225 0.1100673 0.2473698 0.72019064 -0.50212467 1.3103942 -1.799812 2.8753445
律 0.58032614 1.1296428 0.9485887 -3.096378 0.3759748 -2.2828815 0.55784714 2.5851083 -0.76234895 0.19553022 -1.5642648 1.591317 -2.1227264 1.6654005 0.8768359 -0.29577044 2.8386855 -0.84129906 -1.6156183 1.2381368 0.50049484 -1.2504781 1.0180365 1.4727045 0.9598935 1.6790267 0.9639778 -0.25225553 1.1599973 1.976765 1.5097948 -1.7180314 1.0656179 0.43465573 -1.6909958 -2.3038335 0.57018757 0.6521026 0.83982587 1.3087738 -1.0955687 0.94035333 -3.6597736 2.1800764 -0.85346144 -0.40309128 -0.5805006 -0.18572773 -0.6967629 0.5798598
规 0.74062014 -1.2367486 1.9759338 -3.1301713 0.09364136 -3.2243195 1.3487338 -1.3850703 -3.077365 -0.1781573 -0.45296836 1.3770573 -1.8734838 1.5966797 0.29024965 -1.5909153 1.777979 0.5509273 -1.181317 2.5240474 -1.1863844 2.0087993 -0.1589187 2.4723191 -1.1834611 0.7191593 -0.6411789 0.13816623 0.38331428 -0.033979904 2.7848158 0.039036702 2.4984243 2.3810265 1.1534452 0.09293626 1.749908 -1.0927043 -2.425782 1.0200993 -0.015967695 -1.1598254 -0.30473384 1.5460829 -1.7483053 -0.6310706 -0.86588186 -2.1413414 -0.72794 -0.707164
关 -0.71980655 -1.4644656 2.0863 -1.6320083 1.9639302 -2.701805 2.1199322 -1.345642 -2.8186014 0.272876 0.31154495 -0.068498634 0.15456374 0.6441886 -2.3026571 -0.2651875 3.5554585 -0.36453658 -1.7693266 -2.0028155 2.6446383 -0.52075833 -1.5749239 1.7762665 0.6815101 -2.0362787 0.39046195 1.7804371 0.8066774 1.2730967 -0.19963956 0.55554694 0.4390821 -1.027282 -2.5285738 1.2038897 0.034128908 2.5138087 4.9264994 1.7714134 1.4604324 2.5320625 -0.2907031 -0.36587474 -1.0604264 -0.25849 -0.3207207 2.1264231 -3.9897213 1.5546548
刑 -0.10192191 0.443788 -0.2327211 -3.3401117 1.5740561 -2.0942583 0.92533326 1.447367 0.93268335 0.9458606 -4.953761 -2.9839053 -2.9071448 2.4702795 0.533363 -0.54141504 2.5464928 -1.0982504 0.48643672 1.3585927 -0.015174513 -2.25999 -0.67932945 0.83043444 1.5584896 1.1961004 -0.08145283 2.8354192 1.2298647 1.029929 1.1161636 1.0456225 1.0126333 2.0413508 -1.8912531 -0.24493095 3.1482532 0.45221397 -0.55648535 0.66026396 0.49235326 0.10693413 -0.84416884 -1.1728331 0.5199385 1.1328831 -0.9814112 -2.197736 0.77780473 -0.14352773
犯 1.0355576 0.3855502 0.4158908 -1.2364564 2.1749556 -1.1524363 -0.9041988 0.5617083 1.7491375 1.1128325 -2.9066198 -2.0665913 -0.7256374 -0.2072235 -2.2254446 1.0489635 2.2650063 -1.3093927 1.416667 -0.4933392 -1.6196069 -3.244518 1.6369584 -1.3558811 1.3655705 2.366677 -0.14258093 -0.025867617 -0.050303556 1.849279 2.8482883 -0.014287657 -0.7969177 -2.0092082 1.3388071 0.42381713 1.2501576 -1.643994 0.005536173 1.0610696 1.5066415 0.6735905 3.4208972 1.2542356 -0.90938157 0.95268285 1.735351 -2.1222422 -0.5638026 1.0308793
利 1.4647249 -2.1497645 1.8779428 -1.3657253 -0.41192868 -1.084441 -1.4157501 -1.710162 1.5940548 1.5784495 -0.6640948 3.3235333 1.1720073 0.13303591 -1.0872301 0.04164007 -0.7718977 0.67083436 2.1148453 0.90264976 -1.9668251 1.6332954 1.9586957 0.5993538 -1.4879191 0.5508517 -0.81903976 0.03967489 -0.4561718 1.68396 2.0806193 -0.48226944 0.10192199 0.2502694 1.1435379 -1.0346318 0.06358781 2.7381039 3.3415177 0.83971614 0.36282825 -0.61322165 -1.6480237 -1.0813925 -0.80474883 -1.9150959 -0.32398918 0.7857628 -1.4976571 1.5957978
用 0.3324694 0.9566756 -0.21675354 -0.96655595 -1.822585 -2.437238 0.7717218 -0.55574656 1.9263011 0.10668567 2.2398276 -2.0279999 -0.37125278 -2.1664147 3.2784367 -1.1123937 -0.42601433 0.52274835 1.051435 1.2131996 -0.104172654 -1.0677296 1.1688163 2.3776906 1.3641078 0.14435187 2.1966372 3.0709596 -0.62001365 0.8267274 2.1995716 0.22711103 1.4881984 0.32779047 0.5092723 1.8207217 -2.0769708 -1.4169781 1.3690857 -0.83120465 0.05789578 0.18878545 -1.724404 -2.170147 1.8256224 -2.967343 -1.0063905 1.301707 -1.513948 3.047155
同 -1.3519322 1.511294 2.9035056 0.42520854 0.84235644 -1.0819889 0.23359339 -0.74658906 -0.50004977 -0.2308314 -2.1214142 0.62156534 1.8605365 -3.224128 -0.3672429 -1.9098035 2.0517445 0.2185417 1.1999977 1.2865369 -0.76774687 -1.5579423 -0.8494001 1.1013082 1.2809805 2.3785338 -1.8640066 -1.8104248 0.47490373 2.9115944 0.6162246 -1.0244167 -2.7999964 1.2283652 0.78725 3.0022063 0.7446202 1.1467878 2.0657358 1.2001622 -1.1104437 3.1880279 1.0900663 -0.34459844 -2.0779316 -1.3087598 0.016606187 -0.5119828 -0.23881906 0.1431965
其 -1.3741126 -0.7488533 -0.07289406 1.459087 -0.5764673 -0.88918096 -1.1394717 0.98765093 -1.0422753 0.523701 -1.6849674 -0.5576058 1.7412684 1.5296066 0.8709534 1.0554165 0.18063994 0.36364645 -2.716387 0.20540382 -1.524376 -1.2474619 0.38165608 2.3946173 -0.00505618 1.7106565 -0.50737035 0.41404784 -0.88188714 0.562451 2.7887292 1.537224 0.9368585 -2.0921013 0.8790382 1.696607 0.349888 -1.4204582 3.1728494 -0.15194356 0.4994661 1.2649512 -2.4403183 0.7197603 0.66620624 -1.5315251 0.6447428 -0.5332772 -1.7329372 0.8452084
保 -2.083303 -0.34516025 -0.40590203 2.001145 2.4161444 -1.736241 1.1789377 -2.6815698 -0.16267519 1.3104659 2.5863078 1.8230226 2.4996614 -0.36662316 0.3293492 0.98294157 0.1853482 1.5905877 -1.0723503 2.3564467 1.0141053 0.92820704 -2.7250392 2.732809 2.069561 3.4595122 -1.9961067 -1.133762 1.8635569 3.8702903 -1.3778273 -0.46620977 1.223211 -0.3883042 0.10270867 -0.04462006 -1.1248463 1.130558 -1.3377044 -1.6171763 -0.88257706 0.27200383 -2.965139 -1.2342609 -0.6240888 0.089842126 -0.06352875 0.5407016 -1.9923974 2.168798
公 1.5985315 0.53197163 0.18478867 2.2153218 2.7753828 -0.9355411 -0.88718003 -1.2895933 -0.53329265 1.5887709 -0.7545484 2.220178 -0.7007223 -1.1033635 0.712253 -1.3725106 -0.255792 -0.26353976 -2.4877815 0.6801379 -1.0280232 1.4305305 -1.4660153 -1.1807287 1.16776 1.2430329 -3.708968 -0.050616015 1.3445102 2.039227 0.9738825 -0.05495929 0.36303404 1.6976655 0.740123 0.33596155 -3.7783027 2.5806475 2.9308429 -1.0306549 0.43772084 -0.87702835 2.9442651 0.24472825 -0.8523036 -1.5119892 -0.6771645 -1.0143056 -4.255323 1.911252
产 -0.94012487 -1.2826998 -0.1599852 -1.0024784 3.4469657 -0.06966054 -3.6117024 0.66561633 0.04533771 -1.4344319 -1.5179883 2.8780298 -0.24206908 -0.9258459 2.5971456 -1.9255521 1.1540856 3.2874963 0.5851529 0.6857109 -0.91382164 1.2000688 0.25523987 3.381564 2.8000212 0.024876673 1.0386919 -2.4286988 2.2720852 0.49128458 1.6114817 0.49681687 1.2987964 -3.3810565 0.16242571 -2.1142392 1.4782168 3.9781168 1.2899036 3.398435 -1.4365704 1.6302524 1.4111398 -3.2167246 1.5580304 -3.2416255 1.3491764 -0.2070868 0.15560848 -0.87293136
者 0.85859174 -0.26990804 -0.59910923 1.5579767 -0.9231056 1.0240214 0.5858082 -0.80731875 -0.18939741 0.3492183 -0.08727973 -2.077363 1.359108 0.5129304 -0.7336767 0.31919503 -1.0254972 1.1850592 -0.6888901 -1.1509213 -3.1211634 -0.30626523 -1.3703761 2.1916637 -0.40259862 0.978936 -0.4670207 1.4248081 0.95602506 1.1512119 1.5068452 2.0896955 0.60313976 0.2858308 1.1316166 -0.46051264 -0.98975486 -0.78422046 -0.8628153 0.39460447 -1.2684883 1.0520401 -0.23068099 -0.50096303 0.7606974 -1.6149204 0.8277584 -1.4975423 -1.9674082 0.6389475
合 -0.51125693 -0.48752302 0.51354474 -2.2958705 -0.79193157 -2.3147473 0.28403366 -1.1224262 0.32227746 0.29514346 -0.3832884 2.3362768 2.4533672 -0.8125854 0.64982945 -0.24635212 0.8264303 -0.828465 0.7321358 2.4354002 -3.3522146 -0.3673712 -0.2742437 0.057280675 1.0293958 2.6209316 0.8091211 0.119785324 0.97986585 -2.147229 0.119139075 0.3838646 2.2835991 -1.784677 -1.1573493 -2.494343 -1.592137 -0.16961421 0.44582847 1.4557801 -1.7622914 1.7154814 -1.9278507 -0.68528974 -1.6298718 1.9133836 -2.0241916 2.0895486 0.37251058 3.6420896
体 1.1631026 -1.8465976 0.5860189 -1.1331424 2.264296 -2.6741934 1.6355253 1.631629 0.5845113 1.1007458 -1.105062 1.8450572 0.922689 0.9810821 -0.9830038 1.5283686 1.5675294 0.13055971 3.1621344 1.658297 0.45688266 -2.488808 2.3942137 -0.69513124 -1.2063504 -1.0501176 -2.9725246 1.0992899 -0.20596972 3.027492 1.8254081 0.7202005 1.4956738 -3.5172687 -0.3724639 1.0559176 -1.5668615 1.2249689 1.0809588 0.43604493 0.03871699 1.012261 -1.5110116 0.91966707 -0.510161 0.39686933 3.272287 0.0962675 -2.7905784 0.5584912
主 1.2133051 -3.2618454 -0.044492446 0.60054135 -0.53616446 -2.9421015 -0.73201185 0.65536 1.3095539 1.7490994 0.5750939 0.059713945 0.9592296 -0.78385055 -0.53952026 -1.8025628 -0.2116845 -2.5888617 -1.1707306 2.1892602 1.349905 -1.3967705 0.14316909 0.2578656 1.1460159 -0.41588485 1.1823204 -3.6530876 0.1193737 -1.8210747 -1.6075741 -0.7312229 -0.120996565 3.1439853 2.1331406 -0.82935596 0.37972945 0.14111213 1.0912185 2.748305 1.5071552 0.25124073 0.008209057 0.6806589 2.5367506 -1.0352155 1.4708182 -0.99768895 -2.3381934 3.5228784
会 2.0204198 -2.8111928 2.9416363 0.62392193 2.1511476 -2.4627695 0.15956321 1.6081302 -1.1792367 -1.298406 0.8851112 -1.6975517 -0.6977374 0.20603384 -0.5110518 1.608558 0.20791121 -2.88313 -1.681717 0.6800836 -1.6009098 3.7869954 -1.9976516 -3.014006 -1.828191 0.057855774 -0.3646452 -1.537776 2.3077445 -0.15453362 0.9411459 0.7997926 -0.9962053 -1.4780447 -2.1816492 -0.7671921 -2.7742457 1.129127 2.3544362 -0.75125366 0.4039586 1.3722453 -3.1371844 -1.4579209 0.52464116 -1.1089337 -0.014587613 1.4296767 -1.8214419 1.4353136
制 -1.7123601 -1.9053878 -0.62563896 -0.4812363 0.64911675 0.14863007 2.5935342 0.10471255 2.4488547 -0.6513525 -0.19282301 1.0948819 -0.49074546 2.0500157 1.6507702 -2.3209326 0.36308742 0.6276391 -0.3759124 0.51691794 1.5995826 1.2311519 0.022536255 2.991461 0.27478608 -0.763919 0.45325848 -0.81773126 2.2933161 1.81506 0.8911411 -2.6872528 3.3717303 1.6791403 -0.21787696 1.0449784 -1.8308402 -1.112938 1.1063762 -0.15317278 0.1271319 0.7843148 0.4147376 1.1537895 -1.6032883 -1.898152 -3.7622578 -1.2745994 0.58242786 2.7041585
务 2.2277293 -1.2289659 1.473164 1.5712197 0.41696718 -1.6193756 -1.4756536 -0.86978686 0.5352617 0.90777886 -2.3120363 -0.667114 1.3957286 1.9283085 -0.35258383 -2.633902 -1.1303947 -0.40878284 -0.7017186 2.179051 1.3524939 -2.382201 -3.1331658 2.0445364 -1.058496 1.7000506 2.7258961 1.6044673 1.217066 -0.5763159 -1.5307947 -1.3947018 -2.4098978 -1.7288101 1.2449564 -3.413754 1.5909073 -0.06518439 3.0018663 5.1512017 -1.5758094 1.8979595 -1.995059 -0.96695846 1.1513115 -1.6336496 0.9246238 -0.054881424 -1.1563303 2.555634
于 0.10812914 0.28418747 -2.9046178 0.13509394 -1.165043 -1.90257 -2.8157866 1.3642112 1.8400328 -0.23395506 -0.36318332 2.1931372 1.3799647 -1.7611961 0.15022893 0.1410301 -0.20706747 -1.6937463 -0.5002125 1.1414287 -2.0842419 0.511034 -0.5975157 -1.3376931 1.2819456 1.5392897 -0.9572314 0.50437254 0.9504407 1.0712243 0.54749745 -0.82058614 0.64204484 1.6436113 0.21940078 -0.70534015 2.457693 -0.8734577 1.0955694 -1.5455813 -0.8524197 -0.09280634 -0.08093983 1.9049422 0.11401875 -0.47626695 -0.81357366 -1.9302347 -0.45942596 -1.1031747
理 0.3347846 1.2209929 -0.16811678 2.8322783 -2.0321574 -0.87737805 -0.2239535 0.873095 0.17867003 0.217379 -0.57459164 0.33944395 1.2559044 -2.7320213 -0.26093122 -2.0813336 0.7067616 1.4598556 -1.8944237 -0.07951778 2.7108104 1.4819958 0.0924134 1.8507524 0.61312294 -0.84526086 -0.19746144 -3.0930953 3.5940385 2.8770044 2.001499 -1.8628002 2.4218628 2.0451448 -1.4419745 -0.8315093 3.1004112 1.7290219 0.8653667 -0.5815339 1.6732335 3.4796746 0.1041925 -1.3328516 -0.7647627 -0.06707448 0.7426902 -2.958693 -0.28071737 2.6242292
成 3.6109133 2.18989 -0.4199661 2.0411973 3.971588 -3.0654657 -2.9629555 -1.708622 2.586601 -2.8431191 -1.0866256 -0.93521833 0.48507226 -0.5597217 2.4730325 0.06657772 1.8495464 -2.742519 -1.1573344 1.0395063 -2.1131742 -0.97234386 -0.8056785 1.7974119 -1.9368488 -0.40596515 1.7123475 -0.19359793 -0.26569724 1.399499 0.7835648 0.36692718 -1.0994556 -2.493464 1.7761366 2.1523862 -1.8747329 -0.8721147 -3.5532048 0.7867866 -0.33254114 0.7688288 1.6671013 1.9988998 0.62510216 0.09565243 0.30470535 1.1097867 -0.36998874 2.607879
要 -0.23592994 1.1618328 0.41933802 0.5811334 4.002728 -2.2823286 0.24259327 1.2066929 0.2718246 -1.5460348 -1.0710801 1.5870655 -0.5580238 1.6667289 0.37485686 1.4406632 0.5954187 1.0217661 4.0675488 -0.23978296 -3.7093618 -1.221171 2.993546 0.1822826 -0.24974312 -0.65426576 -2.1456397 0.61384916 1.7901957 4.1171665 -1.7654064 -1.4068604 -1.0477768 -2.3591852 -2.6457458 1.0074975 0.6322228 -0.64933205 2.0423045 -1.6758181 0.48580512 0.21809973 -1.4127092 0.69707644 -1.00264 0.24834755 0.93316245 1.3835667 2.5891867 1.7029212
所 0.24683304 -1.9992265 0.46258357 -2.1756485 0.5872617 -0.77542007 -1.8182439 -1.2916158 -0.7772944 -0.31045312 1.2983209 0.90453684 -0.025428979 -0.15117604 0.060181983 -2.1144562 1.6114246 0.07796093 1.1739254 0.36076763 -1.6058068 0.26448956 0.3972493 1.4270859 0.5599125 -1.2662882 -0.34263265 -0.45063102 0.1823405 1.4983125 0.15894426 1.221983 0.85815483 0.8977281 -0.08835424 -1.1917757 -0.12133101 0.9007032 1.1316789 0.9244765 0.6629111 2.130928 0.35630247 -0.4465674 -0.6341417 -0.3169829 0.78221726 0.21047851 -1.7595811 2.1182022
家 1.8630923 -2.2087073 -1.3032781 -3.0156739 0.55628204 -3.4362848 -2.0423172 1.1310762 -0.53209317 1.2237306 -0.13557972 0.13807054 0.07828395 1.2343534 0.57078 0.9213717 -0.19468428 -0.60168236 1.1644473 2.2925484 0.93761283 1.612174 -1.7070338 2.6488218 -0.3740718 -0.6316416 2.1378617 2.7936664 1.821824 -0.8730684 -0.9464536 1.6044004 -1.1430224 0.48217937 -1.504292 2.2652557 -2.3970838 2.1029904 1.8446693 0.49443054 -0.68395036 -0.48523584 0.682843 1.591717 -0.33519077 -1.3385955 -0.8653967 -0.80177 -0.89315176 -1.0304887
方 -2.469524 0.0731024 0.31355557 -2.279563 -2.71022 -0.016229555 -0.44080043 3.3995051 0.7231378 -0.5711924 -0.66988784 -0.3540207 2.044481 0.20465934 -0.9611596 2.5055292 3.0320642 0.05107509 -0.81605166 0.0068130093 -1.8889076 -1.7041134 -0.6025429 1.0815089 0.66702396 2.305928 -0.60932356 -1.9601768 -0.1636236 -1.3646511 1.6035303 0.011169865 0.09131541 3.1111686 -1.3831663 -1.1546106 -0.29766935 0.19058923 0.2383095 2.0263777 -0.7174835 0.5405995 -2.5832174 -0.2638763 0.07923018 -4.3794446 2.534149 2.3569424 1.0866632 2.8063173
作 2.070167 -1.6058834 0.59209496 -2.8806646 -0.109285794 -0.804458 -1.7820522 -2.3684154 -0.3983929 1.090582 0.03825145 -1.7465918 1.4731373 0.41017416 0.75696915 0.2220739 2.0805957 1.5687969 -1.6515301 0.33314666 0.16486007 -1.5952017 -0.8748021 -0.21289797 0.809352 0.5171796 -0.8279807 -2.2876763 1.3130128 1.5385638 0.6216369 -2.781976 -0.33213535 -1.9807353 -0.15742536 2.4053478 0.6974098 -0.08299129 0.6906897 -0.03568151 0.44420093 0.51381 -2.5994804 0.18069956 1.1089836 -2.049556 0.07796155 -0.012462833 1.6852108 0.6880709
种 -1.2219121 -1.8737345 -0.25999734 -1.8874435 0.48788965 -1.048339 0.16069412 0.42274702 0.8039699 -1.706367 -0.47099936 1.598821 2.3177152 -0.48361924 -1.7685457 0.24955446 -0.030939983 -0.7623092 1.0835537 -1.9783202 0.6958899 -3.1542728 -0.27375847 1.2409011 0.42159304 1.4499316 -2.3894398 0.5722119 -2.2161593 1.8885609 2.0732062 -0.55243826 1.8945519 0.93510985 0.14432016 -1.0105053 -0.8187718 -1.1286654 -0.35128006 1.525897 0.6588273 -0.058748115 -0.33264363 0.49761105 1.6223066 -4.4683056 0.06916457 0.537883 3.1409302 2.2216494
实 0.61627036 -0.52788043 -1.4041957 -0.7849277 2.5671446 0.036778435 0.79174674 1.2962413 0.34512216 2.250217 -4.2383327 -1.7916057 1.1204419 0.66882867 0.36207727 -0.65300703 1.5488162 -3.7821226 1.307418 0.48172227 -0.7271742 -1.105108 2.2277448 1.881714 1.131583 -1.3074397 -2.770131 -0.35287267 -0.20741463 1.2275827 4.4828095 -2.1982963 3.1561656 2.4029524 1.5791441 -0.39872363 -0.4810142 1.0044909 -0.21372305 1.7226845 -1.6308228 1.4715556 -0.21377534 -2.0715096 1.444942 0.6643688 0.43656766 2.7371173 -1.2965347 0.026352271
义 -0.251763 1.3340536 2.0723088 -1.0797513 0.33655912 -3.2031946 3.775786 0.08940476 -0.06657607 -3.3851624 1.9220142 3.2968905 -0.28936136 1.6491945 0.5288202 -0.610643 1.010915 0.053008433 4.1428432 1.3913157 -2.1895006 -1.1203557 1.3518894 0.0066222297 -0.27231413 -0.41559476 -4.3274813 -1.4344419 1.7097919 0.73276645 3.0178099 -2.208645 -0.74496937 0.580821 -1.0888296 0.7977609 -3.04894 1.6133708 1.2245718 0.21481124 0.56895506 -0.07553985 -3.194105 -0.57531345 -0.91972876 0.65971214 1.2857443 -0.27465168 -0.039836626 -1.9868706
自 1.28882 0.9079223 -3.9256735 -0.9244875 -0.60271126 0.9649676 -1.2833104 -0.07092577 2.249532 -0.72270995 0.6389459 2.942036 3.0320613 -0.26033434 0.102710605 1.5301005 1.5154636 1.3651868 1.7210102 1.0308653 0.802467 0.5235971 -0.6646285 -1.3063134 3.3694494 -1.6948323 -1.9315754 -2.6781456 0.43954793 1.8612355 1.8261659 2.1573248 1.9563701 1.5112069 1.6201122 -4.3977323 1.5881608 -0.0412223 1.7258534 -1.7262548 -0.083236545 1.3539712 -1.2891481 2.5384736 -1.8582531 1.1573747 -0.19849214 0.90697384 -1.4310242 0.6611019
政 -0.2803326 -3.9730697 -0.7072119 -0.8535412 0.37448287 -2.0510879 -0.6359922 2.7541611 0.5262838 1.2921035 -3.1175427 0.624499 -0.5059494 2.7708056 -2.6494157 -0.98463076 -3.409137 -0.8126435 -0.8799652 0.7305158 1.0509032 0.1776054 -0.54492295 1.6397243 -0.26271477 -1.9152536 -0.9220561 -2.220111 4.4192147 1.9766288 2.0774622 -0.16811301 0.34639102 1.3446709 -1.997864 -2.2862597 -0.56743413 0.9716784 3.965814 2.6801052 0.09662484 -0.08434923 -0.116914615 -0.47699335 -3.6447916 -0.39842013 -0.22827536 0.63112074 -0.3899613 -0.2851779
生 1.7167226 -2.6037927 3.4711387 1.2519592 -2.7085323 1.1715001 0.2198352 -1.0940151 0.44752973 2.4576154 1.9453855 0.44065225 2.2400079 -2.9916613 0.3013571 2.2706845 1.7705605 -3.282723 1.9825916 0.27359444 2.3983412 -0.25035998 -0.65323985 0.06862913 -2.2273529 0.9259427 -0.40255576 2.027165 0.030519878 2.3120556 2.5379806 -0.2093284 -1.6136801 -0.82538515 0.86313564 -0.14546013 0.27607256 -1.2092997 -1.584342 -1.1847646 0.8592027 2.7617574 -1.2358941 5.1124105 1.460057 3.5662787 -2.3177495 0.786769 -1.1615059 1.8152927
动 1.9089649 -3.6729047 3.9432635 0.96541584 -3.3687327 -0.93823427 2.43119 -0.9847391 0.8797774 2.9275842 -0.5543838 0.8163488 -0.210257 -0.9652363 0.5038682 0.41312617 0.7045959 -1.4939183 1.1752802 0.375517 2.6953673 0.30663133 -0.81822824 0.017540587 0.37503722 1.3796957 -0.57320386 2.535183 -0.310984 3.5448098 1.687674 2.5734828 -1.2214627 0.45682043 -0.38131946 1.2646971 -0.7505 -3.6101496 1.5407147 2.6806269 0.3058935 4.3609576 1.0905917 1.0607431 0.43002334 2.7760992 -1.2142358 1.2243885 -1.8059129 1.161033
1 1.0225381 1.6445867 1.3829656 -0.70756066 -0.11526982 -0.29248503 1.7872831 -0.31184766 -0.04285971 -0.07136832 -1.654113 0.28563523 -0.70080185 0.5385557 1.0833024 0.40202385 0.7579579 -0.88547564 0.4101802 -0.8515761 0.5447754 -2.2563558 0.1364725 0.5422793 -2.7750328 2.0306509 -0.86648846 -1.673561 0.11287145 -0.20150094 0.39006406 0.9909852 1.3288991 1.026393 -0.6294345 0.62041456 -0.6074214 1.968594 0.12076314 -0.2753857 -0.30458596 -3.5298798 2.6819878 1.0122416 -0.6505415 3.1834676 -1.6952248 -1.9484477 0.14370051 0.74992436
债 -1.1866188 -1.8741735 1.6506882 1.5560693 0.82900614 -1.6457905 -1.426654 -2.576017 1.3580784 0.08429897 3.6475725 3.7760758 0.32619742 1.2495564 1.1505797 -1.8519292 2.6286218 1.2506849 4.787068 -0.43069455 -2.6370912 -1.4212722 0.13227321 1.1382307 -1.220378 1.1019679 -3.3428056 -0.059342418 1.2126627 -0.01121958 4.361143 -1.805395 -2.4889004 -0.100000426 -1.9529264 -2.1651847 -2.475689 3.256742 2.6440096 1.8089669 -0.8249918 -0.7381951 -0.38273174 -1.0239991 -2.206116 0.44973823 -0.23952368 0.42078054 0.7346422 0.17757064
可 -0.93149364 0.5887981 -2.9316652 -1.8686274 1.6386957 0.5240049 -1.1198334 -1.86033 1.511896 -0.4954002 1.7995598 1.0483383 0.348419 0.6039185 -2.5428278 -0.60997 0.11294527 -0.43687722 1.1299742 -1.2449217 -0.7628369 -0.23247993 0.2846158 1.2362831 -2.2501905 -1.142552 -0.044631857 -1.2081013 -1.309889 -1.0007421 2.8823497 1.4512141 -0.74989295 0.28458783 -1.6833901 0.9378871 0.43998566 -1.6785138 0.28447026 2.8256068 -1.3194197 1.3365 -1.9736735 0.56512326 -0.415937 0.20663707 -0.5815137 1.0942259 -0.907071 2.177519
出 -0.29987147 -0.9101712 0.427384 -0.32237306 -0.012352406 -0.19810423 0.18868689 2.6749394 -1.2478766 -0.22707109 0.17343003 -2.014047 0.9298535 0.5768387 2.3322685 -2.449709 1.4866081 0.94053143 2.2237751 -1.9427929 -0.9918511 0.29963905 -1.1696845 -1.0359049 -0.3747196 1.123394 1.4314731 -1.9470112 3.0768135 0.37064463 2.815752 0.5880082 0.3079332 0.12841915 0.955506 0.5770929 -0.7162692 -0.8885576 0.6160345 1.2116442 -1.1901003 -2.3191822 -0.098668255 -2.2543335 1.9950235 -0.2538614 -0.49875394 2.9508908 -1.5073069 0.71877897
上 -0.044667386 1.1622186 0.5471784 -0.236797 0.4756035 -0.8079061 0.098412335 1.7592595 -0.29067397 0.06828026 1.0827733 -0.091880016 0.07442999 -0.54929024 -1.0595863 -0.23258124 -0.36230215 -1.580549 0.30008224 -0.9221194 -0.17508787 -0.9222391 0.7592267 -0.25361624 -1.0876846 -0.28676555 -1.3774537 -1.2182623 -0.9920454 1.7247272 0.61961013 1.3700026 0.07435264 1.876858 -0.659766 0.526493 0.19176868 1.1798818 -0.34467107 1.2490343 -1.6324165 1.2691699 -0.37496054 0.87433857 1.5802715 -0.116209574 0.15873067 -1.7550703 -2.0691543 -0.14209919
任 -1.8867495 -0.7509209 0.49267548 -0.5656522 1.0046954 -2.930436 -1.151476 -2.9433966 2.2531614 -3.626697 -0.48419932 0.6309069 -1.2020559 1.9333655 0.51931244 1.6954422 2.5129867 -3.3941271 2.2662125 0.5810804 0.15040377 0.34591702 -4.8459916 1.5240123 3.6305084 1.2879064 -2.9137454 -2.591004 -1.6106516 1.8186584 0.62597084 -1.6962577 1.9562792 -0.8894066 -2.4695792 -0.38770813 -2.0877523 -2.6988301 1.0410378 0.0049038045 -0.123261616 0.47641006 -1.0672901 0.527944 2.052699 0.79115826 1.8017703 -3.546252 -3.0037062 -0.33000806
性 0.58267593 0.95941395 0.5048355 -0.37087873 1.6752758 0.0687982 2.1298614 1.0496573 0.16210765 0.81659454 -0.28755903 1.5180736 0.1562586 -0.96947706 -1.6694449 1.0300038 -0.8666995 -1.3972816 0.5008529 1.4228954 -1.9966209 -1.0644515 0.15173092 0.08358349 -0.3231619 0.0064228573 0.21089561 -0.90540075 -1.2436767 0.4849145 2.0040333 -1.186331 3.0877905 -1.7655299 0.6102715 0.81430626 0.33703676 -1.1655575 0.5813395 0.85916555 -0.16359013 0.748459 -2.4330275 -0.44346312 -0.6813798 -0.56599694 1.1651515 0.2687838 0.1037695 -0.76109976
他 0.92738193 0.7284255 -0.59164613 -2.5611763 -1.5626705 0.52702296 -0.51152855 0.348964 2.0256903 1.2696542 1.8464365 -0.07013025 -0.17760763 2.0058696 -0.880976 2.8209717 0.6251195 1.9160385 1.2581173 -0.37800512 -2.8736207 0.18328802 -2.6182659 1.954379 1.3356403 -2.6750185 1.4176459 1.4378685 1.4064353 3.024761 -0.13603514 -0.56122935 0.045851003 -1.30416 2.2285073 0.5340828 -0.826386 1.2988312 -0.9132745 1.932606 -0.48525462 2.9402251 -0.33690226 -0.1147705 -0.38033864 -0.09673842 0.880607 1.3181683 -3.7156248 1.3885679
等 -1.1795274 0.20261525 0.78747797 0.846289 -2.2336721 -0.062542364 0.52136266 1.4701636 0.53056616 0.46334463 -0.2452328 1.6517072 -0.41213518 -1.4220062 -0.34905076 0.3321346 0.9298865 -0.032016106 -0.10928269 1.4706833 -0.21931016 -0.05931545 -0.116930306 -0.10532047 0.8332459 -0.8061507 0.46229416 -0.3157539 -0.89591783 -0.20756543 -1.058217 -0.8788541 2.0026538 -0.48669934 -1.4670902 0.68109703 0.18312468 0.46840835 1.096171 -0.075916864 1.2692682 -1.685151 0.050063994 -1.0753622 -0.22147597 -1.0851879 -0.20410524 0.8867257 0.059037454 0.29392114
而 0.15378451 0.04986226 -2.2536483 1.1433417 0.1822679 -0.5154675 -0.21889642 -0.31672114 -1.7665553 0.55130464 0.71825993 1.6130624 0.8763467 -2.1245701 0.59953815 -0.28304031 0.25843307 -0.6246301 -0.61010766 -0.517601 -1.8037368 0.6393812 0.76478857 1.7109894 -0.5284143 0.05188739 -1.3266643 -0.07804298 -0.71834755 0.5159774 2.582784 1.0337269 -0.54507524 0.25838143 -0.15518656 0.9135643 1.650354 -0.11958335 1.8045517 2.8826747 1.9540582 1.3878181 0.204899 2.2466726 -0.00570766 -0.30031863 1.2838305 0.53283215 -0.22293995 0.5897591
能 1.8816578 0.23901515 0.045697756 1.3134469 3.8861637 1.0129619 0.13841455 1.8873158 0.5551499 -0.50947344 -0.3995295 -0.679742 1.5085546 -0.81470937 0.92340994 -0.86059576 -1.0007399 1.7956204 -0.103467695 1.9249836 -1.5866854 0.88333094 -3.0816858 3.676586 2.6240237 0.38898942 -2.1465619 0.36599094 -0.99535334 2.2724872 2.3535864 -0.35529977 -2.6596124 0.7114617 -0.49327192 1.0346721 -0.73995006 -0.8747334 3.7373583 1.227755 1.511427 1.2892578 -2.237515 0.91948855 0.92359173 1.9393758 0.9898886 -0.055145334 0.73958296 0.0068976567
发 0.34185967 -0.47577152 -0.7632153 -0.33134246 3.7031314 0.32583115 -1.3033834 1.0105067 -1.0112458 0.3762793 -2.840555 1.242698 1.8631742 -1.0028784 3.270594 0.4858388 -0.70276046 2.104182 -1.0476468 -1.6604097 -2.935799 0.9183923 -2.2755866 1.9817349 0.48864427 -1.8082622 -1.183016 -1.4373103 2.4552479 -0.10608195 0.43755764 0.57535964 0.6946999 -1.1157103 -1.3454944 -0.9552751 2.171935 2.547416 0.7458589 3.906394 -1.5596498 -0.7871004 -1.0852126 -1.3734751 1.7803869 -0.6519612 -0.74605495 2.7229936 0.07496831 -1.3025929
分 1.1890625 -0.36769032 1.0428149 1.3800496 1.6839263 -2.2678156 -2.4333055 1.6414258 0.6896517 2.2867165 1.2973511 -0.9715776 0.82823336 -2.4681017 -1.5268015 -2.2834494 0.88524234 2.9133976 -1.4227415 1.5736126 -0.4210894 -2.0083127 -0.026062865 -0.8177455 0.64376086 -0.057014503 2.1553767 -1.6892796 -0.6958905 1.9379673 2.6491416 0.46128362 -1.3099018 1.2063063 -0.68258125 1.373894 2.191094 0.644923 0.6132841 -1.0973474 0.7785982 0.9827189 -1.605029 -1.4546549 -1.5577421 0.64320564 0.77296 -3.7675474 2.6390495 1.107009
物 -0.8846306 -1.3948964 0.85395324 -0.7308773 0.1996435 1.217416 -3.0968592 -0.18612397 -0.9134843 2.504641 -0.41901115 1.7919613 -0.77836215 -1.0987538 0.82528365 0.6572422 1.8101343 1.6203228 0.6232715 0.7825881 -0.49952722 -0.33703023 1.9184936 2.534718 1.0253527 1.19167 0.13847212 -1.7528721 0.0014693331 1.7359933 1.4341456 0.2021531 3.3881278 -2.331313 2.2791855 -0.9170362 1.4487325 0.48661435 -0.18645915 0.938167 -1.1671463 1.6049093 -0.5302037 -3.544464 1.4283779 -3.0018773 0.26199982 -0.7786018 0.009259959 -1.1561404
经 2.8793612 -2.7029026 -1.0464122 3.1550875 -0.011506744 -1.8061824 -0.98541385 -1.9485576 0.13577667 1.4947256 -3.1763 2.037775 1.4856107 1.8081033 1.5266417 0.26610214 0.4067108 1.6754684 -0.35709202 0.6361707 1.3149323 0.7593136 1.5563589 -2.135761 -2.935244 -0.9013764 -2.2681243 1.1293844 -1.1040854 2.438434 0.6347591 2.4262333 -0.555904 1.2973983 -1.9628004 -2.170389 0.97741646 0.014027585 0.36481997 0.97380066 -2.39804 4.629017 -2.2416835 1.323103 1.7257397 -3.0512946 -1.705283 0.5216632 -0.86703485 -3.168395
系 0.46084177 -0.30178592 2.9653735 1.018349 0.7090959 -3.7373462 -2.998106 2.3250496 2.2787774 -1.4452329 0.6667097 2.3744428 1.1353668 -2.790629 -0.5129427 0.6278791 -1.2164303 -3.267955 -0.23083186 4.142946 -2.3183901 -1.6252939 -0.49854088 1.7305485 -0.75385386 -1.1306505 -1.8474047 1.0738243 1.0982381 -1.4255842 2.5507503 -2.293547 1.0796182 0.6064562 1.2847469 -3.5916665 3.2656693 0.5581478 -1.7512584 0.35274777 -1.3957058 -2.4809732 -1.8158225 2.728379 -1.4411248 -2.2645702 -1.1639677 0.6671651 -2.547824 -0.13635986
责 5.11706 1.7577562 2.496823 4.3455567 0.57492733 0.12031458 1.5738225 0.8157419 -0.39492434 -0.047288142 -1.0156358 -0.45446518 0.16399294 4.478341 1.0263529 -2.3946452 -0.77386457 2.0563896 1.5236129 4.242733 0.33239368 -2.1646173 -0.21908979 1.7886225 0.12314164 2.0902424 -0.8612602 3.230711 0.01507286 -1.4022763 -0.5494901 -2.6061454 -0.91582173 1.3493199 -1.9951009 -0.77373576 3.3879395 2.228765 -1.9833057 3.0722191 3.86359 1.5417919 -1.815475 0.89281636 -2.9371696 -3.0198836 -1.6404915 0.92701685 0.22403294 3.530436
与 -0.9964042 -0.16697009 -0.52043897 -0.17258285 -0.30822527 -0.47351086 -1.7974007 0.48600698 -0.37150046 -0.20090848 0.4076717 -0.28049234 1.6613456 -0.29346532 -1.4172024 -0.71577054 -0.42696574 -0.36586016 -0.78057617 1.2128091 -1.7498947 -0.8074938 0.24976411 -0.4865315 0.31495273 -0.99363077 -0.7254823 1.0589161 0.4568647 1.0101736 0.34407404 -0.6674819 -0.52038133 -0.95694107 -0.63394094 1.4635377 0.8273679 0.6318052 0.69722134 2.1805332 0.98283136 1.1056153 -0.32601082 0.09887509 0.66142833 0.6108714 -0.46708867 0.70410293 -1.7075733 1.1523075
个 0.4054127 -1.7007178 0.6057646 -1.6880777 0.30507174 0.01910764 -0.7144723 1.6619085 2.3174987 -1.489332 -0.09660984 0.112841465 1.3257207 0.2825695 -1.4915829 -0.46871042 -0.38278824 -0.89115137 1.31523 -1.5549238 -1.3781509 -3.2190762 -0.5488333 0.16676946 0.61364955 -0.034700878 -1.8986429 -0.5178973 -2.0366058 0.4165729 1.2590343 0.24287471 0.0079199355 -0.36411053 1.419342 -0.3776379 -0.94133985 -4.6353023e-05 -1.3797495 -1.1389399 -2.2429523 -0.13779025 -1.0545449 1.0283688 0.7955868 -2.5847528 -0.21732093 -2.069433 0.7931854 3.4669802
当 0.6235201 3.3012707 -1.4129441 -0.957091 -1.0812078 -0.4073517 -1.0370314 -0.96619046 0.5404959 -0.7255975 -4.278667 -1.174845 -0.028516479 -0.43955088 0.63038903 -0.571943 1.9701374 -0.6410549 2.966219 1.5577706 -0.97265196 -1.4385121 -2.663704 1.7276258 1.4010872 -1.4359437 -3.5068223 2.4213893 0.009766213 -0.079161376 1.7487737 -0.82778394 0.38340542 1.2671593 1.4479338 -0.08338149 1.9385015 -0.53871197 2.3025916 0.3093121 -0.5956014 1.8767705 -1.5935664 -2.54701 -0.18369357 0.47800475 -0.057428338 0.617991 -0.69558054 2.3490388
本 -0.8493299 1.0064203 -0.4595952 0.113096826 1.6370053 -3.2154684 -0.15177567 1.3751506 1.9036298 2.0081713 -0.9973544 2.269254 0.9723893 0.7451481 1.5682871 -1.4737309 0.99889725 -1.4414328 1.7525837 0.07009681 -1.3057992 -0.417188 1.0510441 -2.2783227 1.3124609 3.3522487 1.2998544 -0.4045958 0.7281861 1.4121833 1.2477281 0.32880163 0.22198479 -2.6637907 -0.23206505 0.5921146 2.1805449 -0.29337525 1.5640603 0.1427551 -2.677368 -2.4628217 0.26448986 0.0746289 0.18946362 -0.64777803 1.373491 -2.9781432 -1.6136358 -1.0449009
由 -0.44302738 0.2725755 1.247586 -0.8407628 -0.50201666 -0.5984959 0.635196 0.83884215 0.66473955 -0.60341215 -0.6208017 -0.6507101 -0.30664426 -0.016563883 -0.031199098 -1.5775625 1.4664248 0.64913183 0.06444911 0.38949007 0.9827243 0.79042464 -0.3381 2.5024984 -0.7775596 1.414649 -1.1344787 -0.029287051 0.7336556 0.116143085 0.3410855 0.8898245 -0.20330012 -1.3918692 -1.208596 1.2060205 -0.03563692 1.0589806 1.3943018 1.6872529 2.2416646 -1.7905062 -0.7859078 1.3202394 2.2718184 0.75126404 -0.8318341 0.79224086 -1.8020372 3.4713435
意 2.2199032 2.0842395 -1.9856192 -1.0698435 -0.10622064 0.1918919 2.6889973 0.41131118 -0.05876848 1.4105186 -1.1130877 -1.7242222 2.7569659 0.17681389 -2.089953 -0.005101693 -2.1670482 -0.28864247 1.3396741 0.58904606 -1.2885414 1.6824487 -0.5295637 -0.9746794 1.071799 1.313212 1.7094166 -2.856643 -1.5975404 -1.2204758 -3.1221495 0.9786375 -1.4283569 -2.8295746 3.78662 -2.9850957 2.8998542 -0.9705585 -1.8478153 2.299654 2.2587683 0.44037035 -0.92566246 1.5971202 -0.05268112 -1.2945085 0.039271895 0.86732525 -2.4570248 3.1136646
年 -0.8981617 -1.051416 0.34866533 -0.6910845 0.38831058 3.4533122 -0.16182978 0.3986653 1.1507307 -1.2756945 0.50086576 -1.0884145 2.873479 2.638232 0.053562336 -0.29002985 -0.71235037 -0.12239932 0.9704859 -2.0323415 -0.9671466 -1.2822049 -0.9204089 -1.2313341 0.04951014 -0.22005713 -0.92152965 -0.46112722 -0.12052393 1.1442549 2.213048 2.4757392 0.5540244 2.3955677 -2.097438 -1.3444731 3.093725 4.311274 -1.1819636 -0.70017654 -2.1128547 0.06693562 0.6162657 1.3593991 -1.7746695 1.6381611 -2.1709836 -4.8523836 2.0542135 1.6114975
地 -1.011782 -1.120731 -1.9545214 -1.1561456 -2.705492 -1.3464004 -0.014023698 -0.81402904 1.5137526 0.24103472 0.61536705 0.041706648 0.006577171 -2.182151 -0.5653682 -2.7941043 0.30221337 1.7573247 1.651975 1.9559997 -0.5071097 -0.8494861 0.9755849 1.1138668 0.52283996 -0.8549799 2.2603066 -0.80068284 0.059904464 1.8583648 0.07095173 0.87716305 1.199956 -0.12544443 0.86598164 1.2776296 -0.8809814 0.8498788 2.351049 -2.9517906 -1.2423716 -1.3850124 0.50094175 2.62769 0.77222484 -0.8164031 -0.37294602 -0.061572194 -0.90950304 1.0010682
据 -2.5489068 2.0456538 -0.7332456 -1.6735184 3.9820101 -3.532648 -2.2638726 -1.9200952 -0.3995312 1.5005134 -2.4998765 0.5788493 3.8974326 1.9143448 1.7714467 -3.5850089 0.9984724 -1.9580575 2.4234226 1.2235463 1.6617622 -1.3142993 -0.956579 -1.8981694 0.923868 2.8609793 0.049169093 0.046808206 -0.67463934 2.4772167 1.3803427 0.64897704 0.7808254 -3.035234 -1.7158405 -0.56603354 -0.5018692 -2.6170392 -1.1994618 -1.5516605 3.341081 -1.1680454 -2.2787497 -1.143466 -0.33780527 -2.2717829 -1.9110668 0.10278862 -4.7921066 -2.7630582
力 2.45085 -2.2290518 -1.6261051 -2.4306724 0.90351254 0.9098203 1.2907226 -1.5929563 4.31171 0.6852495 0.1961567 2.6812336 -0.15800929 0.6470074 -0.0057477006 0.85217154 0.91299427 1.2984201 1.6384495 1.4093609 1.7960349 -0.33588776 -0.2892909 1.3713927 -0.8230711 -0.28776726 1.9692338 -0.65704393 -1.7175511 -0.23039457 3.0047524 -0.64274967 1.923793 0.28941435 -1.1442767 -1.328245 -0.0826098 -0.8906552 0.08999248 2.5596647 1.2456503 -0.91861326 -2.3370569 2.1856017 -1.0870447 0.85288054 0.37748757 1.129801 -1.33029 2.0787172
时 -0.9396148 -1.7211881 -1.5490011 -0.44544405 0.8499329 -0.063798435 -0.19195823 -0.8361039 -0.7801082 0.22448066 -0.7115446 0.7033559 1.3930937 -1.7599403 1.7721516 -0.14686799 -1.6665709 0.04696276 1.5441108 -0.09725796 -2.551847 -0.9992355 -0.30424297 0.41136858 -1.3874985 2.1648612 0.8414396 1.2907197 -0.21616957 -1.8637892 0.8397067 0.08000943 0.027474497 0.1408247 -2.2044754 -0.98007375 1.1226299 -0.19133574 -0.1071322 -0.27210933 0.44644544 1.6510081 -1.1329263 0.34424043 -0.07303834 1.6617523 -0.027868548 1.438115 -0.70613796 2.6269379
业 1.8648651 -3.3454447 1.9556916 1.1247212 -2.5219624 0.052514877 -0.6964039 0.076567866 -0.20581785 -0.2915095 0.8415917 2.4119434 0.42017812 1.8016543 3.1360576 -3.6212714 1.1745971 -0.70250565 1.4612406 3.9941828 -0.24151655 0.5643015 -0.9056529 -0.65022546 -0.40024167 -1.8846076 -3.1836927 2.0899436 0.928139 -0.16121276 0.54937166 -0.38469234 0.1433994 -1.8883736 -3.3265996 -0.43576998 -4.2562613 -0.8104604 2.1397169 -1.9192415 -1.4593889 4.1832747 -2.247937 -1.623164 -0.6347856 0.04450401 -0.41130358 1.165735 -0.031920575 -0.4417178
险 -0.8166748 0.07708459 2.2556462 2.742205 2.1146243 2.1473875 -0.9228195 -0.54899395 -0.5673235 1.2831141 -0.69267094 3.5151472 -2.953454 0.029659163 -1.0911751 1.3931576 3.8174605 -1.1177118 3.2336054 2.2139564 -1.6192536 -0.044427853 -0.6833966 -0.07370828 -0.16464129 1.4888628 -2.040092 0.5203713 1.5674636 -1.9774039 -0.57683897 1.1282891 -0.42023978 0.4995036 0.34227365 2.5191765 1.5603704 -0.7641793 -0.56859 1.790548 -3.4089215 1.05923 -0.3582885 -1.1605113 -0.1387081 -2.574434 -1.6838813 0.51938915 0.7774002 3.1614096
“ 0.27198875 0.81402344 0.7144061 -1.5695202 0.30249792 0.9652189 1.0529944 1.292768 -1.8615998 0.37943226 -0.11639128 2.217983 -0.32380688 -0.14794311 -3.4085505 -2.5071666 -0.23000365 0.9239337 -0.34860405 0.04917659 -1.7464966 1.1967449 -0.7033613 2.5703006 0.8222342 1.5109712 -1.5157688 0.98133516 -0.10789235 -1.478014 -1.5215838 -2.3103676 -1.120007 -1.2364389 -0.07146039 -0.0086699575 0.11840957 0.048118547 1.5461848 0.14112633 1.3491907 -2.6417239 0.8775719 -1.4227071 0.572927 0.9045712 0.03831311 -4.032957 0.39250138 -1.9082685
” 1.519594 2.0599153 -1.2392803 0.4355789 0.8117178 -2.107209 0.9082043 -0.015419483 0.8244887 -0.50315374 2.1999195 1.600161 -0.3876178 0.9821232 -2.34354 -1.3987145 0.73504835 0.39561474 -0.176924 0.8488364 1.3400114 0.41304994 -0.62466437 -2.8306136 1.8088903 -0.22925094 -0.38475496 0.1867495 -0.3558638 -1.7056484 0.49745002 1.3240019 -0.47199556 1.1337502 0.6012992 -2.665201 -0.41127938 0.85184693 -0.66946983 -0.06093155 0.4723598 1.4405138 1.0720904 -0.75030327 -0.40406424 -0.0435026 -2.2033143 0.50538486 0.15161303 0.5514482
证 0.65210813 -0.0014120601 0.42221344 0.42856312 -0.35388175 0.22964014 0.5157823 -1.1726515 -0.09045404 3.6571958 2.712761 -0.3771348 -1.954496 0.56910974 0.3624127 0.98332274 3.3653018 2.4607217 0.5138133 -0.8169404 -3.2793624 0.07082195 3.4017148 2.6297336 2.505831 -1.3834053 -2.4507456 1.4308058 -0.041644394 1.5273427 -0.21448635 -0.47711805 1.2212638 3.0509949 -0.12091223 -1.4744501 1.1423352 -3.1047776 2.0901403 3.1793435 -2.2266045 -2.4646454 0.6745882 0.16812502 0.411068 -0.30750474 -2.3928275 2.0636961 -0.23390861 1.6826465
使 1.6540726 -3.8054855 -1.1211635 -2.0069692 -2.201782 1.6958541 -2.4852152 0.035758898 1.080777 0.62009114 -1.8749706 1.664097 -0.5456314 -0.12103332 -0.7381091 -0.120825686 -0.34142226 1.0020125 0.7396914 -0.24893895 -2.114485 2.4190795 -0.56368935 2.057449 -0.27060917 0.5327494 -0.94093895 -2.529778 1.1169119 2.925942 0.9617034 -0.08831653 -1.7045387 -0.5723376 -0.39109105 0.6689115 0.19373973 -0.056945886 1.448917 0.434725 0.9520419 -1.1676121 0.0156227 0.83478373 -1.7541902 -1.2690821 0.9745474 2.077819 -0.64630497 0.027401382
社 -0.38885942 0.17668615 -1.8705078 0.56238467 0.76312107 -0.7404911 2.337823 -1.5455824 0.31913745 3.3703332 -1.7817885 2.6150181 2.3679078 -2.3284132 0.83289415 2.3788302 -2.0206602 -2.9620364 1.3923922 1.3343624 4.044816 -1.6886907 -0.7905703 2.0290318 -1.8669809 -2.5383875 -1.0112383 1.5991268 3.1336007 0.6193346 0.21282497 -1.7627712 1.3239615 -2.1312253 2.187619 0.673059 2.722358 2.5742183 -0.2629848 2.6615705 -3.3998685 -0.42025954 -1.101884 1.6372128 -0.5204739 -3.7373405 1.6934636 -4.207991 1.2943635 3.5726216
害 0.13100193 0.80323654 0.30910796 1.6717565 2.6505926 2.7919257 -2.0694137 1.122119 0.4319524 2.4793825 -3.855832 2.1331882 -0.14420119 1.3035175 -2.7763236 3.85308 4.174786 -2.5246797 0.98085797 -0.27775908 -0.5402382 0.010461064 -2.464366 0.69927365 1.9920899 0.39151803 1.9105637 -0.4821525 0.49377957 0.045583513 2.9724503 -0.37890586 -2.2159345 -2.4339044 3.564931 1.1960317 -0.1967801 0.20221895 0.13299415 0.15857668 2.534207 1.5196136 -1.4704508 0.9246703 -1.043271 -1.2650083 -0.98398 -0.869398 -0.38937137 1.2371435
资 1.4609878 -2.8071196 -0.012317879 3.262639 -2.5969598 -1.926016 -2.4052596 -2.7052279 0.33502007 2.821762 4.94094 -0.16383466 0.59001184 1.8092875 2.6905687 -2.320406 1.5381849 -2.690804 0.73173684 -0.28158194 1.0163969 0.010247286 -0.48543826 2.3390977 -1.4839125 -0.46453455 -2.3971074 0.3420981 -0.3549796 3.6684875 -1.7701743 1.3550742 0.2642617 -2.09184 0.31820816 -0.5895788 -0.19343299 1.1057241 0.25815275 -1.1649952 -0.65051794 1.7060184 1.3756015 1.4064972 0.6287653 0.14251305 -1.9052187 1.1885164 1.4586544 1.8141025
（ 2.3153698 -1.488147 0.9433436 1.1042669 -2.4135644 2.1210268 0.70512295 0.9494453 -0.99794126 -2.4629712 -2.1424112 0.6059984 1.1230446 1.3890953 -2.1593394 0.6411326 0.6648645 0.635608 -1.7084149 -1.0436932 0.77510846 -1.7801782 1.1178002 1.2407697 -0.10004004 0.4951542 0.15065612 -0.3085808 -1.5607206 -0.42438218 -1.6852046 -2.0463085 1.0270227 1.1923472 -0.114530124 0.4330049 -1.0433625 1.1206938 0.54805356 0.10173013 -1.2309536 -3.5199747 2.3338747 -2.2820473 1.29976 2.6148226 1.1313351 -0.6654364 0.5623612 -0.58962584
司 0.5448443 -0.26443586 1.3467968 -2.1713548 2.0003254 0.63284576 -0.91959524 1.2464468 1.1307354 1.3438053 1.8078052 0.24194846 -0.15886587 2.1737788 1.2856036 -1.5129874 1.6814111 -2.2491124 -1.7034374 0.11183932 2.3891463 -0.38146108 0.3829764 3.1599717 0.7056931 0.8571455 -0.9526091 2.7153704 0.7868454 -0.32406893 0.29344517 -0.93308043 -0.20762685 -1.1740614 -4.177966 -3.244571 0.13873173 -0.22508645 0.441569 0.6302775 -1.5670749 -0.9247236 -2.2561772 -1.9422376 -0.76117384 0.114648096 0.43092886 -2.0247374 0.036385056 3.4285142
之 -1.5189137 -0.15534055 -0.21658607 0.26456422 -0.038791846 -1.6128374 0.45716512 0.719483 1.4523232 -2.0666933 -0.9985974 0.38932282 2.613504 -1.2512395 -1.1375836 -1.2160293 -0.5905018 -1.092875 0.9763176 -1.3252732 -1.0067202 -2.0451908 -0.41852668 -0.22583842 -0.901639 1.3796741 -0.11406263 2.4727361 -0.9864843 -0.84878796 0.8720121 0.2840445 -0.5194673 -1.7683365 -0.7171667 -2.2080114 2.2811723 0.79750043 -0.84089637 1.0882329 0.8995813 0.20988496 0.46566576 0.10294949 0.4982106 0.3149224 -0.5559953 0.98965514 -1.2649708 1.4535576
过 -0.32915118 1.9020667 1.0425955 -1.4879518 0.83987856 1.1999283 0.47148836 0.6306261 -2.081403 -1.6745985 1.0614691 -0.7527309 -0.044276785 -1.555888 3.6520178 -1.3824643 -0.43065825 0.6656638 1.7604697 1.0547316 1.4927716 0.1913491 -2.1550753 -1.1913056 0.6079556 -0.37104106 -4.3636627 0.76682484 -1.13896 1.2422693 1.9975942 2.4429164 -1.5433285 -0.46902594 0.35473084 0.1823651 1.8836198 -0.34579578 -2.15664 2.14658 2.4952984 -1.5958848 3.5205958 0.9642858 -0.48268318 -0.7942674 3.1233692 2.0436268 -1.742035 4.177849
财 -0.47136754 -1.5915954 2.873995 1.9572341 -3.1566792 -0.22294454 -2.611882 -0.90626067 -0.92863256 1.533833 3.8456633 1.5668142 0.03641032 0.48919502 -1.6743017 -0.32507163 2.7456555 -1.9419194 2.6101878 0.686568 2.223118 -1.453262 -1.2832242 2.5096922 -1.3597779 -0.16984564 -0.4522074 2.4069817 -2.2668695 3.4956372 3.2261002 1.5459554 -0.12201059 0.27347174 3.8509853 0.0363671 -2.2750373 -0.2585711 0.34560055 -2.0332596 2.535734 1.8057504 1.3416448 1.9703103 -0.52967626 0.831084 -0.9829503 -0.41139093 -1.1487474 1.9887434
重 -0.2550551 -2.0629973 0.49314958 1.7604489 2.07105 -2.9912715 1.9711552 1.2561214 0.12953675 3.0042422 -0.9129259 -0.009318229 0.60420406 1.3786204 -0.9766079 -0.592851 1.8752025 -2.0994463 -0.5537777 -0.7129824 -0.28714845 1.179134 -2.1877167 -1.4410849 0.8860083 -1.7296666 3.650136 -0.62208015 -2.4415884 0.101857685 1.5577176 -0.19556926 -2.167439 1.8573333 1.8797084 0.09587711 2.9011233 -1.2338406 -2.8937893 1.6500087 3.1041524 0.881847 0.55510455 0.21750106 0.3957313 -1.0464123 2.1870348 -0.40708545 0.18685786 1.5219114
受 0.18168063 0.78410727 -0.6444616 0.96766955 -1.4855095 0.80558723 -1.848235 -1.7086967 -0.44741696 -0.9559631 -1.7063885 -0.05683147 0.56115746 1.0688875 -2.734387 2.0668046 -1.1774946 0.088955894 1.2481798 3.1012847 -0.95123774 1.4574813 -0.24181098 2.4213383 1.258323 0.7400618 0.81218034 1.5239482 -0.73869306 0.6726742 2.2824726 -0.2857139 -2.7815404 -0.12113165 2.4899352 0.6333923 1.2753679 3.3339634 0.6246581 0.18015622 0.54120165 0.36849782 -1.7496345 1.1004212 0.010700761 -0.41823187 0.116499625 0.9175684 -1.3485717 1.89374
则 2.7164416 2.4268513 0.3189464 -2.0922 -0.40907884 -1.5845162 -1.8006728 -0.86907804 0.4035889 0.14062311 -1.6778662 2.5689883 -2.509348 -0.90064937 -0.5394488 -2.2369382 -2.4560387 -0.8066899 1.2398107 0.18681142 1.9665258 -0.89662695 0.7855131 -1.8712865 2.4540324 1.6819319 -0.89134896 -1.1203022 -0.9547125 1.3376622 0.044036053 -0.55983454 1.4208281 -2.3237875 -2.710911 0.771173 2.1967068 0.7392607 0.89864814 0.3367627 0.22562489 0.02714473 0.5412309 0.27472782 -0.046749417 -0.76906675 -2.9403274 0.5368055 -1.7098596 2.4107313
件 -0.64184934 0.9397801 3.9410343 -1.6041969 -0.4015001 -4.352854 -1.2827592 0.5237239 -0.06386814 4.2924013 -3.0322132 0.47323936 2.7598767 -1.0560927 0.8019109 0.4294753 2.42896 -0.54831576 -1.7744566 1.018587 0.8089659 0.044778354 -3.004459 2.818429 0.69198763 0.95391566 1.2894688 -0.09596403 -4.9196997 -0.31801483 0.2529346 -1.65898 1.6640666 2.4314096 -0.4117802 -0.04389336 2.7557201 -1.5533379 -2.2878013 -0.85250086 -0.4329584 -0.271536 0.10992938 -1.3994097 1.4812827 0.95067024 0.87655526 0.80027527 -1.2929229 2.34067
） 2.2523484 0.67522657 1.2444373 -0.1674318 0.046077263 -0.042599306 -0.90824026 -0.91066045 0.0954225 -0.6330253 -0.80834943 -0.08711015 0.66658294 1.7006234 -1.8215711 1.2050474 0.82082784 -0.07315825 -0.045260973 0.16185994 1.7593476 -4.2139196 -0.13890022 1.5376416 -1.8462495 1.1250944 -1.6902503 -2.6972976 0.47880465 -2.0383346 -0.059194386 0.81948864 1.2145898 -0.040214892 1.2716348 -0.1478409 -1.6674128 0.4843679 -0.5334095 -1.4021207 -1.3228533 -1.6966785 0.4380468 -2.0932546 -0.3313201 0.89905185 0.48217312 0.18903838 -0.44292516 -1.3170977
具 1.5958416 -2.4459667 0.5377149 -2.9541743 1.1238894 -0.6671321 -2.2492588 -0.32990462 -0.50074935 -0.18445718 -0.1422837 -0.35051447 -0.64950144 -0.57149255 0.7852457 -1.2271736 0.68659496 -2.955808 -1.531924 0.63312745 -2.1717527 -1.2521554 -0.2687355 2.235272 1.7455326 -1.7979643 -0.42375553 -2.014877 -2.2850752 0.44844043 -1.2613219 -2.0671756 1.1885793 1.3645577 0.11625697 0.7433095 0.82866323 0.1988416 1.3248019 0.48981425 1.9122691 2.3964481 -2.1331618 0.07118922 0.7238708 -1.2295626 -0.74018335 0.44800887 0.31506658 1.6133034
机 1.548729 -1.2123888 -1.0699885 1.1418104 0.7614376 -1.1435863 -4.7343655 -0.7696891 2.8156657 -0.27495128 1.0041554 1.6529322 -1.2361616 0.25600123 1.9860249 1.0827523 0.08393195 -0.9942322 -2.4890475 3.2300117 -1.572789 -0.8382716 -0.6696401 1.8051037 -1.9546049 -1.660476 -1.352682 2.7346382 4.2317886 -1.27828 3.4252915 -3.0110493 0.8572825 -0.30549183 -1.518747 -2.588218 -1.4121076 -2.2354746 -3.360924 -2.0714302 -1.3210166 -3.5345838 0.8749165 1.8766978 -0.36075643 -1.3264735 2.4702392 0.66300386 -1.9897565 1.7712312
共 -0.08837553 -3.0598786 2.1665416 -2.5052414 -1.08612 -1.8665268 -1.8332689 -1.7762663 -0.13349235 1.2268835 -1.3024234 1.6204953 1.7909143 -0.020162214 -0.08669139 1.9351122 -0.68111855 -1.0560529 2.2745137 1.8153079 -0.9917441 -1.0026214 -0.5716754 0.12417326 2.9655144 0.29561383 1.7706023 1.9633435 2.3768454 -1.6141313 -0.6189357 2.009223 1.1850516 -2.4228575 -0.34247074 -2.7245035 -2.6897805 2.244164 -0.8196748 1.1849976 0.8163809 0.020077603 -0.3124947 -1.072339 -1.1296649 2.2082474 -3.2597117 -3.5232303 -1.1850998 4.0584197
通 1.5452199 0.31403688 -0.27061173 0.20919661 -2.3992531 -1.0138144 -2.4370813 0.2663299 -1.1708882 0.09219352 -2.0707376 -0.7626125 0.16596398 -0.15576614 -0.55872625 0.20292798 2.0169346 -0.19061542 0.3990705 -1.5541601 -0.95493686 3.9991481 1.2422614 0.024503265 -0.43623397 0.6746371 -0.5041191 -0.46424893 -0.13218105 -3.5018692 0.32528955 -0.05699574 0.19090685 0.99892646 -3.656532 -4.7570524 -1.9159877 -1.4468806 1.9202967 -0.26217315 0.40638274 2.1068876 0.23739254 1.4424212 2.5183287 -2.7749364 -3.6100125 -3.3710136 -0.33723322 0.5231348
条 1.6209453 2.3174396 3.0749207 -0.8599056 1.1294998 0.24176216 -1.4606236 -1.1700175 -3.8486252 -2.8119416 -0.3741812 2.2804499 -4.183798 0.40661335 -1.0683872 -0.8412212 0.24971929 1.005112 -0.082682915 -0.74006546 -4.0578938 -1.9684055 1.835461 -1.2405465 -0.13697906 2.631898 -0.5512291 -2.095877 0.25502178 1.902122 0.21547525 -0.39548033 2.785752 0.38919073 -1.017563 -0.523542 0.09313214 -0.396661 -2.619175 -1.3396715 -1.327344 0.7954804 1.7178226 -0.115797624 -1.0600712 1.7985686 -2.303461 -1.1081827 0.86741906 1.7977488
第 0.70671725 0.26228273 3.5705392 -3.2175462 -2.839082 -1.4123055 -0.63896984 -0.46344075 -2.2058585 -2.957906 -1.6645682 3.025636 0.20397112 1.6270415 -0.8241694 1.8838838 -1.4531363 2.4607747 -1.0516158 -2.6463857 -0.5366096 -3.5699925 -3.1661234 -1.4263189 0.09846084 1.5722798 -0.18110101 1.8108022 0.008776757 0.44727188 0.85423386 0.6509921 -0.5247168 2.9757326 -1.124868 -1.7610273 1.0690027 1.8677373 -2.3650057 0.82479054 -1.4876307 -3.4155314 -0.2550975 -1.5208384 -0.4331235 0.98384243 -0.50075144 -6.0853586 0.48002625 3.2624898
《 0.22482687 0.16512182 1.9280049 0.4594561 -1.9928885 -0.40875408 1.9790025 -0.89307857 -0.38063756 0.72547686 -1.6677059 -0.6838689 0.3702924 -1.9371344 0.41509083 -0.5274625 1.6166849 -0.43353194 0.016863164 1.2720171 0.17413728 0.26210752 -0.17396712 -2.0956259 0.79771245 -0.06016355 0.87418497 1.0115135 3.6025138 1.3498288 -0.25120932 -1.1993594 0.36025983 0.80162936 0.78033686 -1.3646264 0.039037816 0.19758493 -0.7736189 0.98202 1.8513293 -5.5642896 1.2671208 -0.6044866 -1.1063966 1.4871417 -2.7831662 -3.0780299 -0.6717408 0.14655244
》 0.4087801 2.6603758 1.2692907 -3.9218507 -0.6982072 -1.9732753 0.31488225 -1.0183625 -2.8577518 -0.8580692 0.09520397 1.2997351 0.0060548433 0.0018878172 1.0939984 -0.5109686 0.8748685 0.5405839 -3.1492224 -0.27913186 2.464593 -2.435266 0.2731782 -0.9689376 1.8336132 0.17025085 0.78762084 0.13144585 2.3839169 0.88177764 -0.20957768 2.4617405 -0.0461921 3.0382433 -1.7067091 -0.29710764 -0.41884857 1.0657849 -3.0123293 0.5333577 1.6846395 -2.046478 0.4900312 -1.1300068 -1.049477 0.5699762 -2.8648052 -1.6859044 0.9111185 -0.060679104
现 -0.14880934 -1.7258759 -1.1407505 -1.5506886 0.411004 -0.6394102 -2.2489283 0.37379807 -1.1348064 1.9387796 1.0627205 -2.3908923 1.7845389 -1.7659743 0.39816046 0.7627457 0.18071656 -1.1199733 0.7411772 0.70083535 -0.18699968 0.122993045 -0.21671529 1.7644184 -2.3593996 -1.0317798 -0.83080715 -3.2628736 0.69738626 3.0884368 -1.7206113 -0.0626899 -0.46018603 0.1877979 1.0632013 -2.929827 -0.44415206 0.68009657 0.8188462 2.9183629 1.4631693 1.1562259 -2.657795 1.948875 0.68386215 0.9818709 -1.0623173 -1.9031087 1.6243578 1.6717647
诉 -3.4032907 3.863622 1.5693946 -0.6732233 1.4812298 -1.0762861 -0.0774613 0.18440518 -0.04898514 4.1004686 -2.259342 1.5813934 0.53084344 0.36509815 0.33061993 1.0192484 0.2660193 1.7968719 2.8299122 -0.68322027 0.51085174 -2.8874295 -0.25408587 1.6087245 -0.7687964 0.9837612 -1.5032678 1.5645595 2.6988828 -0.26196128 0.051665656 0.9712763 0.23467581 3.8598182 -1.3437823 -3.2958019 -0.38036296 -0.44547024 3.020893 2.530291 4.060697 0.40633503 -0.70989865 -1.5489937 1.6556593 0.797395 -0.21656068 -2.8716376 -2.6570811 3.380272
： 1.3667144 0.91708183 -0.44522578 -1.1048495 0.09841021 -1.2407039 1.6057948 1.22941 -0.6042769 -1.1073389 0.4851371 1.3719211 0.35857743 1.6791275 -3.3098955 -1.3693955 1.388317 0.037112586 -1.1550658 -0.58763605 1.2080151 -1.9384474 0.86994624 -2.9682808 -0.343924 0.15408076 0.3621534 -1.1901264 -1.7214024 -0.636442 -2.913496 -0.53519833 0.6445938 2.181917 0.5199262 -0.5670173 -0.50524205 0.71507084 -1.1563727 -1.1431378 -0.1285984 -0.5882252 1.4555602 -1.4000202 0.8942586 2.3537672 -1.2223207 -0.61124986 0.24321967 0.81410027
应 -1.7665194 0.8703902 -0.25789765 -0.8469313 -1.2066188 -2.091944 -0.43039095 -1.3077675 -1.6128597 -0.1057583 1.2789998 -0.14189598 0.6176803 0.77190953 -0.22783892 -0.05369131 -0.8155284 -0.016603379 0.75880826 -0.12434707 -2.9693625 0.8364007 0.6848454 0.09201244 0.35050339 3.365227 0.61229706 -1.9201882 1.162672 0.32844803 -0.0457315 -1.528219 -1.0342909 0.90632266 -2.8562033 1.4802943 2.196257 -0.35893235 0.9067139 1.7781341 2.5210993 0.5249648 -0.6952924 0.5288668 -0.7054918 -1.2085605 1.3141602 1.2964443 -2.278884 2.2968354
； 0.6179862 0.18115896 0.109404005 -0.47069135 -1.069663 1.4263521 -0.9287492 -0.20920786 -0.48200908 -1.3885518 0.2965507 1.1250826 0.5123491 1.2540568 -1.0475776 0.45130563 0.20009482 -0.48768094 -1.2280918 -0.6945199 -0.57387805 -1.8390533 -0.09374339 0.90473044 -0.9119404 1.043809 -0.08518578 0.113924265 -0.88397336 0.560492 0.14676143 -0.9767727 0.86788094 0.28046378 -0.18764365 0.6429575 0.5762182 0.6549165 0.18858488 0.84651816 0.30565667 -0.19866283 0.54233676 -0.87555295 1.2045758 1.6346902 1.5131623 -0.74035937 -0.20781776 -0.85344565
期 -2.8978906 -1.8065785 -0.48369762 0.40253553 0.078305535 2.1313777 1.4663683 -3.9786408 1.8426741 -2.0179133 -1.066939 -0.5950764 0.43160546 0.5837785 2.0358655 -3.4300594 -2.7208705 1.2985425 1.0113947 -0.45021883 -1.6801125 -2.4587324 -1.4765952 0.97142047 -3.473565 3.9972374 -0.7717757 0.24445203 -1.239082 0.6791237 1.2161907 -0.11360652 0.2343612 1.7732294 -2.1416247 -1.4025916 1.8361975 1.9428452 -0.9507507 -0.18357809 -0.033191085 0.8229456 0.013327084 0.99158734 -0.38447672 -0.029070893 -2.5320063 0.015095215 -0.40209332 0.5972719
立 -0.10811349 -0.21933654 1.3958077 -3.2523932 0.60740227 -0.7480545 -0.07923281 1.6081927 -0.119358465 2.1990306 -1.52315 0.46821865 3.5840287 -0.79806775 -1.0803396 -2.4002833 2.132522 -0.62726545 -0.18377209 0.22264083 -1.4783757 1.7955307 -0.12350675 1.2280817 1.7194479 0.32397366 -0.82508445 -0.5981064 0.18186212 1.0110193 0.8282274 -0.53804964 1.2058825 -0.5240411 -4.211785 -0.19474956 0.19834118 1.2509707 1.021144 0.5078061 -1.925084 -0.23447698 -0.74522924 2.4909837 -1.0561548 0.29134032 -0.4749894 -0.83268833 -0.48116013 3.725507
全 2.283981 -0.69426125 -0.29092747 2.015028 2.568746 0.89956266 -3.3150465 0.036667448 -1.2125953 1.784956 -1.8630198 1.3209339 -1.8294221 -2.3051512 0.9993667 0.46374747 1.85733 0.76296204 -1.3620975 2.0794442 -0.5261332 -0.295674 -2.3303704 -1.2769405 0.54452974 -0.6519915 3.119411 -0.9217547 0.99643886 0.14664592 0.91803527 2.0959036 -1.7174798 1.6742989 0.7329407 0.46798488 -2.1778562 2.4025297 0.036140703 1.2666764 0.20795475 0.015903082 -1.5752938 0.6372743 -0.089627676 -0.46753305 -1.0580366 -3.599705 1.0965854 3.646741
大 -0.5319915 0.7348868 -0.75221896 1.1101874 0.60916567 -0.26620337 -0.6423909 1.7514017 -2.1049786 -0.80764365 -0.022038959 0.6592251 0.47922835 0.9394413 1.0198705 0.5669284 -1.2457796 -1.9700701 1.8299766 -1.4002383 -0.85279787 -0.1658408 -1.5465709 -0.2745125 0.24902056 -2.4295087 0.75592697 0.87474495 0.5573144 0.9887527 0.5699756 -0.3246606 -2.4922557 -1.4288493 -0.917412 -0.20286216 -1.5992179 2.616773 -0.5097735 -0.5128613 2.1989658 -0.54725116 -1.5396221 0.7224737 -0.102300785 -1.0042757 -1.0495175 -3.8385606 3.2007995 0.28358555
了 0.02726833 0.2174654 -1.6394148 -1.4687434 1.6079215 -0.22482623 -0.14028452 0.18714508 -2.3823698 0.18347408 0.64568216 -0.2533684 1.5151222 -1.3522887 0.22792138 -0.5356783 -0.34698603 -0.38470614 -0.95504606 0.21098751 -0.016879179 0.9813115 0.5084731 -0.9368609 -0.8586016 0.3816626 0.23489456 0.42003864 0.26335186 0.46519014 1.0900106 -1.202946 0.21735829 0.7144278 -0.26636574 0.8988513 -0.36736938 0.32221198 -0.23614843 1.0372449 -0.27211988 0.054232985 -0.28931686 0.07611932 1.0587107 0.50473094 -0.6447888 -0.09061598 0.575972 1.4953924
2 1.4673665 0.9388624 1.628167 1.0850797 -0.9667598 -0.66398823 1.5970665 -1.0816296 -0.3773532 -0.25678062 -0.80284446 0.09763791 -0.67736906 0.3053374 0.96510607 0.8827886 1.1671602 -1.0413136 -0.34342533 -0.40521082 1.004284 -1.2418078 0.39598966 0.05152804 -1.9850811 1.5384843 -0.47269905 -1.8421934 0.0427047 -0.83329797 0.22378716 1.2664232 1.6373565 0.015188325 -0.82371956 0.08269494 -0.4048192 1.8641739 0.50689685 -0.021027746 -0.20631438 -3.3195612 1.7964569 -0.83271694 -0.40872538 3.1920574 -1.1254935 -1.321258 -0.14985737 1.0065426
及 -2.3165946 0.32522902 -0.874265 -0.5138162 -0.7858435 1.709371 -1.5581769 1.1086301 1.0917757 -0.23275869 1.9783639 1.2253093 -0.09697943 0.060921296 -2.0291452 1.0895984 0.43985045 -1.296329 -0.37215656 -0.3139581 -0.95016414 0.22103092 -0.13952227 0.9011716 -0.10909805 -3.4470406 0.6106908 1.4455122 1.0925068 2.487502 0.37278935 -0.6103772 0.1391821 0.40478086 -1.8773316 2.4207304 -0.18701454 -0.18494102 -0.28059703 1.5696542 -1.5398072 2.2108612 -0.51052725 0.4837742 0.36885253 0.20603651 -0.26223105 -0.39747903 -2.691078 1.220114
称 2.5264685 1.8616787 -0.5379927 -0.16085769 3.3367248 -1.6671056 -1.2502384 -2.134278 -0.18622592 -1.3272054 4.0514383 0.9069291 0.1091206 0.54691976 -3.389801 -1.8373691 0.5744748 1.7421083 -0.08807942 3.0251064 0.7017148 -1.291475 1.0349352 -0.081346214 1.5311089 0.1990374 -1.7754887 -0.060157806 -0.16278611 -1.831051 0.21709105 -0.15682963 -0.7713222 1.2558997 -0.69345534 -0.8018315 -0.9074773 2.0181415 -0.024867518 -0.34482434 0.60735315 0.99133134 0.5522182 -1.3609198 0.23469299 0.41981488 -1.4940547 -0.51215297 0.8163922 -1.8076061
处 -1.599187 2.1515856 0.49651584 -1.8267251 0.22878586 -1.9128362 -0.9577344 -1.6251395 1.2949075 -0.34777793 -1.4763328 -1.5602815 -3.6402843 2.922442 -3.1247697 0.16386807 -0.68810356 -1.458534 1.4580687 0.6736198 -0.04307247 -1.033936 -1.7329075 0.8569909 -0.26833713 1.2956254 -0.4739789 1.872524 0.4880708 1.2272873 2.832687 2.994297 -0.00822611 0.5202175 -1.2760178 1.1521134 1.7715542 -0.69723594 -0.29704106 0.25386485 1.0828297 -1.6278375 0.4546533 -0.75585896 2.9996235 1.0759773 0.81918985 1.617696 2.1033332 1.7728863
原 0.57748306 0.06802969 0.8427783 -0.3282621 -0.59004474 -3.614126 0.92999095 -1.8301328 0.12431384 0.42057568 2.0316396 2.3709636 -0.14788184 -2.2091682 -0.43327513 1.6231055 1.0230404 -0.5230858 0.44129148 -1.4123659 -1.8697556 1.7134321 -0.6045993 3.3456101 1.7848707 1.0403856 -1.0647302 0.48662236 1.4418944 0.3695581 1.4529696 2.936411 -0.22766332 2.1718128 1.4432492 -0.3759348 3.39918 -3.2251298 0.277228 0.6677918 2.312725 -1.8946012 -0.20439686 1.3102008 1.2054416 -0.98547244 0.5752678 -3.3683167 0.39955753 -0.3064548
特 1.1883346 -2.123178 0.6308091 -2.3336139 1.1060263 -2.5733294 2.601317 1.1306101 0.22019462 0.65214086 -1.343856 2.1425686 -1.0980222 1.3049024 -2.7226377 -2.15649 3.0367525 -0.4382878 0.44782665 1.4482374 -1.8308765 0.16117439 0.22861795 1.1853805 -2.2728248 -0.64559823 -1.0382373 -1.3889662 -0.6136007 1.3997539 1.9189616 -1.1996194 1.3204185 1.4569148 3.771164 2.471126 0.9464954 0.13953002 -0.61699635 -2.5748858 -0.14114252 0.19270842 -0.85720193 0.45037913 -1.4620014 -0.050474826 1.9536865 -0.1209977 0.51522744 0.81656814
益 -1.2438742 1.0187799 1.7512418 -0.23675896 0.1668334 -0.026364187 -0.2931945 -0.9046918 2.7347054 1.3264233 -0.68419874 2.650336 1.0433731 -0.9374405 -0.035393488 -0.71215975 1.7886989 -1.3262291 -0.24768607 0.3594193 0.062504075 -0.026705625 -0.4432405 1.7493653 -0.99280745 1.256952 1.1047237 0.18876413 -0.40179196 3.86914 1.9897408 0.6502088 -3.172112 -0.25496662 3.8338919 0.17912479 -0.15183662 3.0357254 0.7583064 0.9614792 1.0713689 -0.19936875 -2.157058 -1.7334121 -0.7697995 -1.6868116 1.1557441 -0.5803386 -2.0270767 0.99879587
管 -2.2657263 -1.472808 1.6769613 -0.7724794 -0.93718797 -1.8048682 -1.6308237 -1.7292114 -0.41623962 -0.240949 -1.0191047 1.9422421 -3.5317183 1.2047608 -1.9153981 0.8534747 0.28935295 -0.041482143 0.07481015 4.179046 2.1595113 1.4313632 -0.059953317 1.0875485 1.4327276 0.021593373 -1.430883 1.9451493 3.6706505 1.7799482 3.0243926 1.4776549 -0.6409127 -1.2957697 -1.359935 -0.25228742 -0.67369395 0.13384031 2.5918446 -0.8218308 -2.472485 -1.3853443 0.5840538 0.8345177 3.0807896 1.1113192 1.0408652 2.4767015 1.6348803 0.7779047
进 -0.27332407 -2.4352758 -0.75769985 -0.575969 -1.4681333 0.05803774 -1.6898686 2.2217138 -0.9357061 1.7615794 -2.4453564 1.132545 0.26509815 1.369494 -0.013061911 0.40656245 -2.9538407 -1.2889483 -1.162247 -0.22788662 -0.9848815 1.7557346 -1.2448974 0.8456946 -1.2185239 -1.0454061 -0.850463 -0.64161813 2.7943318 2.3314042 0.6239699 0.7503499 -0.38608578 0.19340202 -0.6273896 -1.2889026 0.32128248 -2.6140683 0.95376587 2.3600936 0.42100522 0.7426989 1.1493545 -0.7663039 -1.5449895 0.8577362 0.31058395 3.111684 0.9405081 0.05128236
依 1.1007606 -0.009663723 0.22748029 -0.81152356 -1.1017334 -3.1958656 0.15565589 -0.6308398 -0.3306067 0.19781026 0.08665572 -0.6103162 -1.9251736 1.6192054 0.59728557 0.9391874 2.0816858 0.85089165 -2.7459846 0.7045882 -2.314937 0.6584837 2.4509475 2.0529876 2.3171446 -0.95237786 0.3144224 2.1360202 0.80849224 2.455174 1.2350131 -0.67738765 -1.7581235 2.387472 -0.50639474 -2.4793406 1.6547989 1.1318616 2.8760219 2.313725 -1.2231725 0.14730106 -1.0402924 1.3208047 -2.095979 1.8093498 -0.029347995 0.79311526 -0.44824427 3.9920816
度 0.57502705 -0.7014393 -0.19973864 -0.31930995 2.4885502 0.13641447 0.8961661 1.2200524 -2.3839374 1.3797143 1.0517888 1.6193452 -2.5514948 -0.9879925 1.5549736 -0.29106355 -0.8241066 -2.035133 0.9678633 3.4415667 1.8123746 -0.47805807 -2.8085618 -2.0113912 1.041568 0.7769717 -1.8454857 0.41271958 -0.91298926 1.1071936 -0.24273205 2.3744338 2.1203897 0.6923848 -1.9440901 -1.5707654 1.4023997 -0.56667656 1.2984667 -0.661691 0.8121113 -1.0316899 -0.9239877 2.775363 1.8814235 -0.5875245 3.19048 1.5195 1.6881467 2.3669128
因 1.2567878 0.595824 -0.7104983 0.07116114 1.0597599 -0.22565033 -1.2803916 -0.32454312 1.7721455 0.24752885 -1.6094402 1.1191131 0.20370035 -1.3750753 -0.89634687 0.18021256 -0.05701091 -0.7665505 1.8087496 -0.39628917 0.79945594 -0.011152989 -0.568986 1.4246931 1.1227924 1.4679261 -0.9702905 -0.6755809 -1.2735153 0.03032625 1.7733204 -1.0689858 -0.15896478 -4.113545 -1.6993171 2.4137573 1.9113343 1.506317 -0.19700846 0.16712858 1.7384461 1.6118166 0.032433372 1.265883 1.7016382 0.050786007 -1.4490669 2.1691418 0.060703028 1.2001967
被 0.39825934 -0.078740016 -2.753899 -0.58547026 0.6975009 1.4783986 -1.1924495 -2.5824575 0.15397534 0.7829283 0.16516961 -1.629288 0.77680063 1.6416372 -1.5257802 1.9092604 -0.3696753 1.9245621 0.654654 0.33377925 -0.31340906 0.71171415 0.038318425 1.215713 0.6594459 1.528575 -2.1672745 1.2211682 1.6352464 -0.60444665 1.274461 -0.055197947 -1.024304 1.3094126 1.484883 -0.21797149 1.709826 0.37665072 -0.8351281 -0.42253962 1.4112225 -0.07802546 0.4356087 -1.1977086 1.3927999 0.19069408 0.36535192 -0.24957354 -1.3017645 1.5834377
内 -0.9709471 -1.236094 0.7362698 -1.196106 0.22528048 -1.1874021 0.27502435 1.037154 -0.29587945 0.33758742 -1.204987 1.9139644 1.5878243 -1.2162234 0.43856362 -0.9334047 1.535098 1.3931952 0.5637676 1.159587 -2.5195818 -2.420057 0.3564982 2.2405787 -2.4361856 0.19903389 3.8133469 1.5410267 0.98259795 1.0204486 -1.7902853 1.4954756 0.44924122 2.133347 -1.7843171 1.3107662 1.3672026 0.28994665 0.43602648 -0.27379975 -1.4552958 1.1170651 -1.2758114 2.8811886 1.726328 0.84032446 1.6919752 -1.4353348 1.0778475 0.010808623
学 -0.16931 0.39227602 1.1147474 -1.8015612 -0.5095769 -2.0785186 2.3766942 2.1148036 -0.9153273 0.13808954 0.12328072 -0.9492915 -0.011395706 0.17120005 -0.7393931 -0.8891651 -0.26884216 -0.033006795 -2.0885587 0.16421777 2.0336003 -1.6760379 0.8418834 -0.7196524 1.7919164 -3.1147757 -0.6807518 -0.97345614 2.661353 0.82044494 0.43353915 0.6216163 -0.706178 -1.7003632 -0.13320528 -0.4695396 2.458502 0.8950046 -2.5452623 0.32827088 -0.01664105 -2.3291323 -3.1154778 0.6759386 2.9155986 -0.9605635 -1.7496022 -1.8306719 0.5903216 -1.1682041
院 -0.39668274 0.8770106 1.1586635 -1.7646116 -0.43990445 -0.93439186 -1.8609843 0.24641809 1.7500452 -0.557766 -0.68178767 1.6137778 0.40487027 3.8573585 0.53612673 -0.19613223 1.2058667 1.7418852 -3.15149 -0.509446 0.99514204 -1.3368344 0.19951805 -0.52399516 1.6004401 -0.6714002 -1.2770029 0.44562072 3.2272198 0.4811067 1.4035481 -0.63549346 -2.570715 2.9913085 -3.65955 -1.4453367 -0.20341456 2.858766 1.0166454 -2.734412 -0.077503674 -1.8300273 -0.914071 2.1785736 0.5624127 0.80708724 -0.1857828 -0.852519 -2.6551647 2.774834
员 1.0799901 -2.2407181 1.018844 0.067157105 -1.7149562 0.75585043 -1.3465002 -1.1165352 0.13530087 -1.5017076 -0.013613572 -0.7262476 2.4046462 3.384411 -0.65856504 0.25932124 0.27235937 0.33599955 -0.08590589 -0.580302 -0.59575 -1.0063151 -1.6234727 0.14515048 0.47108382 -2.4722157 -1.8934282 0.9260561 3.7438486 0.019472018 1.5966638 -1.9384462 -0.8217139 -1.4685378 -2.286294 0.50782293 -0.13581201 -0.012438366 0.18936159 -0.7172011 -1.3932474 -0.20176645 -0.7449013 0.57119435 -1.4217498 -1.771889 1.930997 -2.6041071 -0.89990944 2.554408
判 2.328248 1.5678478 0.5801801 -1.5575824 0.9864211 -0.4907569 -1.662546 0.49241465 1.6392641 0.12630764 -1.9576895 -2.8573039 0.0035832403 0.01113753 0.5260294 -1.8069006 -0.35897234 1.4851751 -1.3058563 -2.1229024 1.5007899 -2.519137 -1.9195999 0.58676136 -0.5857389 0.88049674 -1.1103948 -0.9358998 2.7956026 2.2645829 -0.19361995 -2.1630325 -0.13367441 1.478915 -2.6341307 -1.2870101 2.4641526 -2.0913694 1.0770177 -1.3310219 2.806161 0.32918543 0.9705196 -0.57937044 0.31761536 0.67131156 0.16921827 -0.9684494 -0.46081752 2.9152868
程 -1.8133488 -1.724595 2.0140004 -1.2332869 0.61122036 -1.5434729 0.104540884 -2.2414567 -1.2310157 1.6249889 -3.1644092 1.51902 -0.09519127 0.25284332 1.5173044 0.5219873 -0.41571873 -0.94048584 1.2876627 -0.0742482 -0.63344085 4.4624906 1.8920201 0.8212819 -1.3038832 -0.10295211 0.19290392 -0.71949697 0.98776203 -1.2450945 1.6674572 -3.5639548 2.5983677 1.5052693 -2.9600363 -0.7190393 -0.7631931 -1.0460619 1.9723623 -3.2741258 1.0904117 2.9456215 -0.1935399 1.4081491 1.0297318 -2.8709733 -3.6027815 -3.7616773 1.9353014 2.6927927
承 -0.70035535 0.40483484 0.2097331 -1.014313 -0.9438388 0.092494234 -2.7864308 -1.9679497 -0.8387924 -2.0883641 -0.5039534 2.5633736 1.1300162 1.5069258 1.5365138 0.84444195 -0.2197502 -0.10402202 2.8549778 2.2413902 1.4606111 -1.6299914 -3.7162576 3.690253 3.3851104 2.009231 -1.7046906 -1.0856668 0.44491708 1.6408795 -2.2395813 0.20128079 -0.7976201 2.2326212 0.20117311 0.8674992 0.41666296 0.17356972 1.2273291 1.4342312 -1.3913993 1.087503 -2.115637 0.71947163 0.4175563 -0.7781884 -1.0321808 0.25558215 -2.6421692 1.7109786
0 1.1519706 1.109601 0.8946622 0.60338223 -0.9470749 0.96886134 2.4186149 -0.2905698 -0.18962155 -0.06345138 0.8609206 -1.3420836 0.023014717 0.9425183 2.0967216 0.30960035 1.3560085 -1.2818946 0.20682506 -0.78521 0.27210978 -0.9742852 -0.8364338 -0.30303723 -2.219295 1.3570346 -0.29969501 -1.9222252 -0.20211607 -0.4711453 -0.002725583 2.2654626 1.8966651 0.21319206 -0.6492272 0.4695962 -1.0013789 2.180756 -0.30879682 -1.1641592 -0.6705681 -4.310392 1.6798551 0.41401732 -0.2458933 2.7935393 -2.3692503 -3.030262 0.580042 0.2866259
部 -1.7675766 -2.8174725 0.5138606 0.047839604 0.106336616 -1.8430676 -1.0428842 -0.7390322 -0.7201451 -2.231469 -0.034653984 1.771891 1.5470331 2.1674685 -1.713044 -2.754796 -1.5345341 0.13350365 -0.9139891 0.23015907 -0.48264432 -0.7290273 -1.3729348 1.5040154 0.18143891 -3.0402877 0.2636102 1.2981819 0.5144467 1.424857 3.1976666 3.8943908 -0.5636917 -1.3266093 -2.5888102 -0.19502942 -1.5423559 -1.0799949 -1.560656 -0.60412496 -2.160085 -0.9450132 0.06642166 0.24344046 0.22200544 -0.3993606 2.4475021 0.2664335 1.651035 2.0342128
也 0.8972879 0.06594872 -1.2908322 -0.5657017 1.0954424 -0.53569335 -0.21875212 1.4215099 0.012969631 0.3751925 0.7737044 -0.32293892 0.08970405 -1.1126964 -0.436286 -1.3728915 -0.5229869 -0.15347683 0.81060696 0.0597249 -0.4226862 -0.37590918 0.41233194 1.2158877 0.5898628 0.7891153 -0.83550704 -0.13535343 -1.3098179 -0.9367928 0.76126945 -0.5986914 -2.1971142 -0.65549034 -0.3552099 0.23614277 0.75738686 -1.1648103 1.8958825 0.8461092 0.36046055 0.7769724 -1.3135982 0.80251724 -0.70611554 0.5432261 -1.5036881 -0.6765833 -0.43477118 1.3890119
式 -0.8996745 3.3245351 -1.8555763 1.0447112 1.2343963 -3.0737507 0.22989759 -0.7562196 -0.46218786 -1.0311459 -0.019206425 -1.0426867 -1.3141018 0.22797681 1.20113 -1.2529662 1.7194487 0.33111706 1.3614306 0.11142403 -0.9578467 -1.4535793 -2.400951 2.264826 -3.7357247 -3.1583283 -1.4297612 -2.3669016 -1.6155927 0.7899163 -2.2309241 -0.44880703 2.9472837 -0.8918941 2.069003 -1.5277253 -3.1984453 -2.5001152 1.3810487 1.3423883 -0.7487868 0.52388006 1.0015305 0.38980266 0.02120802 -1.8473438 -1.0547242 0.7843939 -0.5640625 1.2469769
相 0.73051864 1.5697904 -0.50273144 -0.060745426 -1.5967329 -3.6348789 -0.918323 0.26220623 0.79111725 0.609549 0.6328839 0.9622 0.0068150116 -1.2661179 -0.15064237 0.9369752 -0.8350222 -1.9295027 1.8994054 2.8047988 -2.4958556 -2.2389097 -0.9872798 0.94669956 0.70811886 0.15047112 -0.21652722 2.45979 0.971173 -2.093921 2.1630747 -1.7001656 2.1883707 -0.8342368 -0.22412552 -1.3661942 1.272636 -0.54501176 0.9930103 0.8996597 -0.6930461 1.2167622 -1.571401 0.11040917 -0.92270416 -0.95578665 0.7471174 1.0523014 -1.4043727 0.4980627
得 -1.695007 1.1932616 -1.1811546 0.07973352 -0.6196882 1.6591517 -1.1297506 -1.7340795 0.13687705 0.5223613 -0.92073905 0.015726699 -0.5483987 0.18121848 0.3379927 0.022796305 0.05362803 0.8050794 0.7305868 0.16152501 -0.8274646 2.8075874 0.4172588 1.1157378 -1.4655038 2.3109064 0.49398646 0.40697384 -2.1147108 3.6384532 2.421445 0.10384359 -2.8601751 0.43795022 1.273762 -0.1285933 -0.14678034 0.31502265 1.9810904 0.67794245 -1.23093 1.5509816 0.04902138 0.27675068 0.15556467 -1.7301606 0.093422346 0.9952311 -0.83322006 0.76147574
并 -0.6915815 0.50439805 -1.8853666 -0.20465916 -0.14980346 -0.4479723 -1.4676099 -0.69916666 -1.3519388 -0.36658418 0.27693343 -0.6759899 -0.5781175 -1.2606276 0.83531713 -0.97956496 -0.96563274 -0.14631996 -0.8046898 0.06676734 -0.45394623 1.0849581 0.16140439 1.5416383 -0.66443765 1.0053352 -0.30733046 -0.5078667 -0.21024498 2.316604 2.048733 -0.21829808 -0.9658326 0.6119355 -1.3818907 1.0421647 2.1383777 -0.4494284 -0.02498379 0.5148851 -0.37581205 1.1991181 -0.40188023 0.8496686 -0.477338 0.14671439 0.54157084 0.34149206 -0.94825596 1.3383089
后 -0.06751321 0.7783241 -0.7742983 -0.4237563 1.1442559 0.50088793 -1.4616978 -1.4193306 -0.3443382 0.5324544 -1.0063579 -0.27069417 0.7401097 -0.49536583 1.0194173 1.106297 0.74251956 -0.6437203 0.58120465 -1.5659446 -0.70754176 0.5703695 -2.1110866 -0.03338854 -0.78021914 -0.02449856 -0.5896486 -0.2523459 -0.4178892 0.49413472 2.9762304 0.1194775 -0.9514547 0.95296603 -1.7954569 0.75290585 1.3466538 0.789051 -1.3474416 1.1298413 0.33825326 0.5206762 -0.39129552 -0.07264658 -0.0109876115 2.5644422 -1.0930663 0.89317334 -0.20888752 -0.00028206717
包 -0.97213954 -0.7616946 4.106543 1.0896693 1.1637516 -0.14051752 0.6197146 -2.0179646 -1.4685404 -2.2719157 1.5896668 0.18923987 1.101793 0.3662026 -2.6857448 -0.027725805 1.8619269 3.645153 1.9177866 3.0555215 -0.41024417 -3.0556898 5.463652 1.9248407 0.1676399 0.57496 0.2553444 -1.2502342 -1.0966626 -2.033573 0.7499749 1.1144232 1.2485646 -2.279543 -0.47999945 -1.3395346 1.009681 -3.3360536 0.061721526 -0.9442622 -0.29880622 2.0038495 -0.79686 0.99221325 2.796371 0.11771892 2.738242 -1.6378354 0.054939684 2.1591084
工 2.808321 -3.5869186 1.4998417 1.7863953 -0.39101496 0.03693292 0.26502264 1.7400016 -1.9514247 -0.066622294 0.10827981 0.060948566 -0.57651734 1.9691513 2.199569 -1.9300258 -0.88156986 1.0561502 1.3876171 0.18212113 -0.3474889 -1.7798321 -1.9192494 -0.016033577 0.67897403 -2.4118013 -0.48541078 1.6575587 4.080842 -1.05432 1.8479617 0.34701684 -0.3570059 -1.2815952 0.49403512 3.3117344 -0.62804604 -2.7345793 -1.0687641 0.27464744 -0.35134184 -0.31130823 1.6957747 -0.21356165 0.6974536 -1.4553542 2.324226 2.032401 -1.6726365 2.8028524
情 0.07786478 2.3959637 1.2881243 1.4032565 1.4038712 -2.5373306 -0.43932477 2.2696812 0.57883424 -0.16105364 -0.030791976 -0.09247312 -1.9490905 1.8000561 0.9373386 0.6837391 0.29822356 0.13030586 1.0522943 -0.30009687 -1.3497239 -1.8323985 0.79209507 2.6207683 -3.0121675 -1.2793972 0.5885393 -0.38557765 -3.8297317 0.25920007 1.9264659 -0.8604452 0.27887526 0.74892396 1.2537955 -2.232349 1.4497257 -2.5230324 -0.8956399 -0.76633614 2.2777374 2.895288 2.308922 0.5370051 -0.387582 0.56704277 0.54276115 1.2259207 2.103821 -1.8843019
讼 -2.0376823 -0.3246044 1.4845386 -3.267004 -0.24563816 -0.64392644 -0.0023370637 0.20536155 0.026624143 0.09215842 -3.6624396 1.4512067 -2.6032605 -0.1381605 -0.9434612 2.3060017 0.05910507 0.0077089677 0.9266366 0.32815754 -0.670259 -1.4208874 1.2013303 -0.83906966 0.025861531 0.21939683 -2.2221162 2.2035651 1.1837331 0.83203685 0.0026970392 -1.2168676 0.28697702 4.158651 -0.063566476 -3.6065989 0.8931724 -0.549958 0.58110464 -0.77582556 3.431697 0.564003 -1.6464158 -2.3181963 0.5424973 2.1067235 -3.2880695 0.1608129 -4.3812995 0.7861841
间 -1.5779684 -0.61843604 2.016858 0.023260685 0.6286614 0.27959815 -0.792334 -0.5987316 0.6050397 1.663527 -0.62989914 0.48887253 -1.015749 -1.9148142 -1.00746 -1.4908676 1.2241873 -0.9324302 0.69190687 1.8205162 -4.0772877 -2.4480782 -1.8671321 -1.064051 -0.8077343 -0.83782196 -1.1888041 0.280949 1.562304 -1.0586685 2.0812268 -0.86320853 -2.590139 0.5568103 -0.8703919 0.8295752 1.2899562 2.8959002 1.7920638 1.381646 -0.40068975 3.8169062 -0.5047126 2.7044964 0.5379617 0.1038306 -1.3791362 0.5218369 -0.8213014 -1.4667151
代 -2.2773566 -0.063308105 -1.7253025 -2.4998198 -0.054685596 -0.6548337 0.3991494 -0.48387247 -1.1232164 -0.7695881 -1.233459 0.30019942 -0.102688394 2.023982 -0.46336854 -0.3861817 0.9524309 0.83538723 2.3790596 1.7210087 -0.39200002 1.5730174 -3.0309472 -0.79245996 0.28341013 -0.16222449 -2.8301737 -0.31918937 2.168736 1.4620262 0.4586683 2.1677222 -2.1168852 -0.31426713 1.4163316 -2.11159 -2.2654734 2.8932455 1.412407 0.94755536 -1.0635238 -2.0610483 -3.4857867 0.9976167 3.4343839 1.2313354 -0.33467153 -1.1581429 0.29252878 1.9545197
表 1.3442638 0.0006095529 -2.9878738 -0.024106443 0.15888229 0.38539457 1.089858 2.6376526 -2.0786326 -0.43705586 -1.415207 -0.90770197 2.002968 -0.107412025 1.5784379 -0.4927658 2.000466 0.117630385 2.412453 -0.14604196 -0.3244134 -0.45127305 -1.2056695 -1.4440136 -0.8617041 -0.81384856 -1.4185886 -2.2185361 -0.36125857 1.0783681 2.1603622 -1.8607435 -0.6311043 1.4741521 2.437147 -0.88843894 -2.6176605 1.9682076 0.049352672 0.717595 0.07500925 -0.39683384 -3.2904503 0.20132908 1.826766 -0.14917424 1.4147675 -2.2979946 -0.620959 1.6483572
违 2.0669887 0.15736564 -1.2593787 -1.6724275 -0.36969954 -2.0294871 0.05516902 2.0028486 -2.3613975 -1.295285 0.58918905 -1.7147497 -1.658948 1.8602824 0.5843403 1.5727253 0.5585099 -0.6099536 -1.5385522 2.0508475 0.50746495 0.73567575 -0.24644125 0.9246837 2.965065 3.0533388 -0.44842196 -0.1583876 3.2399294 0.42021275 3.1478474 -2.1318467 0.23844087 -1.5568608 -0.033268012 -0.631447 -0.6437475 0.9373163 -0.99229664 3.9831178 0.7492747 1.3122127 0.1931761 -0.075711615 -1.0020827 -0.27350363 -0.52828926 0.85234714 1.5116639 -0.296711
金 -1.5951418 -1.021346 -1.8890654 2.9744315 0.00014702405 -0.8680938 -0.57903695 -0.97238374 1.1050575 1.7581257 1.8814307 -0.4601751 -1.0898947 0.9848617 2.1934407 -1.7219821 1.675904 -1.29762 1.0873528 -0.052039072 -1.1610343 1.1516178 -1.1107795 0.38789344 -0.053223416 2.4973967 0.39029452 0.14020929 -0.028832085 1.1398542 1.7225548 0.07354373 1.1622502 -2.3266616 -1.2978406 0.38057864 1.2515424 -0.19070874 0.45194095 0.35374856 -2.5321517 -2.1865506 1.6369896 -2.09681 0.64182484 -2.0027738 1.3909329 0.62739307 0.2701838 -1.5185721
如 0.49793115 1.0568925 0.29282105 -0.052237354 1.0038452 -1.3982253 -2.9659731 -0.44909593 -1.2658662 -0.96886754 -0.58550036 0.23146224 -0.47150746 -0.28829572 0.82961833 1.433503 1.2852163 -1.1372873 -0.12986545 -0.69383126 0.44835284 -1.4229637 -0.5775263 1.8885719 -0.6116628 0.77914196 -0.5642534 -2.6374996 -1.8352343 0.37767684 1.4513565 -0.61124325 0.95232856 -0.32105163 -1.2761487 1.0148395 -0.006281586 0.9576622 -1.2497834 0.72902733 1.8725278 -1.6665128 -0.51342165 -0.54421306 0.6290733 1.6148862 -1.3504636 1.5807035 -0.057158016 -1.5717494
护 0.29437324 -1.05178 1.4271216 1.2603687 1.3350344 2.4348712 -0.35636255 0.08143665 -0.6969156 0.33241832 -0.74461406 3.3179262 -2.6691773 1.5702988 -2.1011026 1.4111145 3.336594 -0.36409158 1.805247 2.542582 1.6257194 2.384355 2.5678992 0.6258996 -0.35974634 -0.16311194 1.139932 0.70524967 3.050782 1.1425471 0.08274754 1.7818607 -0.25259858 2.4576297 1.326952 1.3722115 1.0262054 1.0870184 1.3511204 2.992225 -2.4404879 -0.83260846 -1.1374509 0.70104426 0.2746797 -1.2216256 -2.364814 0.80466807 -2.3123767 2.178349
损 0.23212475 -0.44524276 0.9313478 1.6432984 2.3016524 0.74183446 -1.5434572 -2.0124683 -2.3301558 1.0207952 1.8112062 0.20873436 2.3792095 0.3342371 -0.4755432 2.27429 -0.39023992 -0.32915792 2.5917025 2.360181 -0.43525684 3.3265476 -2.0384731 2.2047281 0.31279445 -0.7914988 -1.7501725 0.8322861 -3.0335152 -0.49965483 2.0610378 1.2284678 -0.71073556 -1.6378626 0.6766387 1.3006812 0.15104945 2.124487 -3.2557294 0.19567569 2.7642698 -0.47424853 0.61709976 -2.9009287 -1.8160468 -2.47585 1.7261922 1.0264182 -0.36672944 1.2147881
明 0.8820304 1.810683 -0.59588367 -2.2736003 0.83688766 -0.838635 -0.38853756 0.33546916 -1.5979321 2.3172917 0.7859228 -0.93942 1.7587951 -0.16718844 -0.29347563 -1.8645966 0.3877145 0.17523932 -0.30908933 -0.85868925 0.8107702 -0.6896844 0.11191323 1.4826219 1.2298412 1.9918697 -0.6270638 -2.1190574 -1.1515133 2.717999 -0.2770254 -0.8321105 0.39157963 0.17907855 -0.3799432 -1.779775 -0.74260104 -2.6158628 -1.5299481 -0.427486 -0.6692277 0.56275314 -1.6093004 1.2515177 2.2346816 0.55726 -1.4367301 -0.020940159 -1.6998707 -0.79262495
外 -2.109775 -0.1930149 -0.44068646 -0.28861272 -0.504025 -1.1764932 -2.365138 1.066432 -0.3665517 0.09442233 0.7856771 -0.2417044 -0.5989818 -0.21418832 -0.14270921 0.46326575 2.601613 -0.30481935 1.7080739 0.53656316 -1.5222733 -0.5610955 0.064070106 1.8205768 0.13107057 -0.35608953 0.5220158 0.67775965 0.5315337 -0.5010206 0.5371628 1.7436013 -1.5495741 0.065877914 -1.5976162 1.439924 -0.78125215 0.21573672 -1.060386 -0.059469655 -1.0619342 1.7100016 0.20895258 0.5922386 0.33548924 -0.0113384705 -0.92992127 -0.67530465 -0.15354376 -1.2291576
活 -1.3450612 -1.4874264 -0.006364126 -1.349398 4.610356 -1.088374 -0.19662821 -1.706546 1.1661018 -2.1384387 -1.0098691 1.8775773 -0.30762252 -2.0338054 3.2910376 1.5182273 -0.27546424 3.5538828 -1.8619152 0.5067235 -2.9498515 -0.48744884 1.5571878 -0.9068867 0.28183857 -2.333446 -1.2849221 -1.154408 3.7295458 -0.66348535 1.1555551 -1.279893 1.9612371 -1.3832859 1.066434 -4.0192127 1.0187896 0.8970064 0.16831002 2.2029424 0.82496077 0.9253331 1.3951259 -2.1321929 2.731662 -1.5515066 2.615906 -1.5753428 -1.3445984 -0.58564526
限 -0.44294465 -1.9146186 0.2354643 -1.9669874 1.7104522 2.4045508 0.93823373 -1.8222251 0.0070648845 0.4894371 0.04799857 0.5937386 -2.224756 0.86068875 0.968951 -3.2758272 -0.2687834 -0.55980164 1.436756 1.8739687 -1.6510236 -1.3295838 -2.8687344 0.39537755 -0.10285385 2.575023 -0.74553055 0.15154041 -1.4131742 1.27958 -0.042944778 0.5407328 1.7787391 1.3744874 -1.736619 -0.4133199 0.52418226 1.5893127 2.646875 0.3716009 -0.71583337 0.28631294 -0.37567297 1.8064525 0.88967586 0.2522855 0.86596 -0.12594613 0.5374743 1.5860524
根 1.843911 -1.3408602 1.2385582 2.0694997 -1.2657834 -2.2013996 3.1938598 -1.7971472 0.4340536 0.12795348 0.48243228 -2.2929897 -1.178874 -0.31609535 0.07261062 1.2179224 1.986927 -0.18880773 -1.1434436 0.20820071 -3.6339493 -0.1382325 2.124091 1.1999449 2.3543823 -2.0539272 -1.0025427 1.8754356 0.4223136 0.9832734 -1.2253058 -0.6589816 -1.4418751 3.1231797 0.6538122 -2.1888618 2.268869 1.603316 2.9928093 3.8641443 -0.0041393726 -2.6040194 1.8890449 1.2669958 -1.5421628 2.4626899 -1.9583589 0.5681375 3.5590694 3.6429565
罚 -0.22869796 0.16662283 -1.3896583 1.5718449 0.9377349 -2.128257 -0.8920687 -0.37732607 1.0361427 0.38132432 1.05038 -3.4871175 -2.8249946 0.43571615 -2.402586 -0.48260167 -0.35882124 0.38288826 1.6632655 -0.26027325 0.2713755 -1.8186336 -1.214351 0.1924291 -0.24007924 1.7008355 1.2465273 -1.2709261 0.42691293 2.1469855 1.7696915 -2.071252 2.4926562 2.654621 -1.6006626 -0.18446784 3.7086852 0.599215 -0.26384428 -0.048717204 2.8920512 0.6400621 0.81781536 -0.9885129 -1.3661785 -0.6384457 -0.88421214 -3.213001 0.4759874 0.5194941
无 0.5351179 0.9754277 -1.062109 0.4067038 -0.24820673 -0.10661528 -0.8979904 -0.49476334 1.6767579 -0.24865799 -0.42932725 0.9217193 -0.480993 -0.09126864 0.8022413 -0.6354232 0.7020729 0.12870535 0.06622288 1.0473714 -0.9184009 -0.16512805 0.30613497 2.2316492 1.4875712 1.7867682 -0.16090046 -0.23789155 -1.2569042 0.6612679 1.8346387 -1.3191227 0.1544601 0.9774623 -0.00086530036 -1.2391574 1.8469559 -0.14110567 -0.21494146 1.5238101 1.1802042 0.022288527 -0.47268873 0.5788197 -0.02350748 1.3280442 -0.87019736 -0.68118626 0.20965967 0.094180785
这 1.1140742 -0.06775619 -1.3655044 0.17097884 1.5866156 -2.9511683 0.39870384 2.9827266 0.21821226 0.59295005 0.16624714 1.4953135 -1.5983951 -2.5346816 0.14635661 -0.061728444 1.29067 0.91130954 -0.5501137 0.09067127 0.4764644 0.26275116 -0.55668575 0.93182033 -3.4758644 2.0779536 -1.973856 -0.65837854 -0.82245934 0.0026652392 0.25891387 -0.2758146 -1.1092533 -0.3738223 0.6394752 1.2553228 0.3691502 0.01892346 0.92061347 1.5056703 0.9489071 1.7416925 -0.22196783 0.75615346 0.23695615 -0.7933149 -1.1308048 0.36857677 2.0380368 1.0801141
取 -1.7642779 0.41952246 -2.7728362 -2.3863306 0.13284022 0.35907716 -1.6038421 -1.2348564 -0.2514339 0.35055038 -0.11020283 -0.028990505 -1.7944399 -0.005143486 0.9661488 0.056061596 -0.557596 1.0410978 0.0034131575 -0.2412969 -0.044524867 1.9722418 0.9524931 2.1715548 -0.9283433 0.8522083 1.0440449 0.016813837 -0.82171637 1.7219611 0.77909243 1.3021462 0.16774924 -0.42134553 1.3424424 -0.39919493 -2.0026355 -2.0968761 1.6743295 -0.16018558 0.8088826 1.20808 1.7708853 -3.1033103 0.18943797 -1.6362435 1.2557601 1.7425563 -0.9328389 2.719575
形 -2.3085325 -1.8543993 2.4695935 -3.1457655 -0.6757426 0.8534658 2.1248052 4.554557 -0.3235843 0.716742 0.8090468 -0.5724289 3.1879294 0.8318661 -0.53781664 0.489641 3.064786 -0.6026992 1.5268686 -1.249296 -2.2490616 -0.48374853 -0.33730543 -0.10361559 0.7031632 1.1055839 -1.2943711 -2.0914776 -3.0838988 0.6395176 -0.46519655 -0.86919326 1.4644133 0.4488442 -1.7155787 -1.6820306 2.0733223 -0.4096421 0.98664725 2.8265686 -1.1828874 2.8726795 -0.6761724 -0.10171934 -1.5830487 -3.0004618 1.2687526 0.13541628 3.481857 1.1080424
即 1.0490656 0.5574622 -0.49280757 0.23999892 1.2208439 -0.8069347 -1.0768178 -0.2820109 -0.44865102 -0.43646538 0.032427713 -0.38078168 0.61824584 -0.2551852 -0.062519066 -0.31496993 0.53723824 0.7138687 0.1734552 0.5173894 -0.39248654 -0.68947303 0.71607244 1.3509719 -0.063647166 1.2376769 -0.9282488 -0.86225873 -0.88812083 0.58311796 0.91512674 -0.3824078 -0.69179523 0.5635798 -0.20654567 -0.052167132 -0.5016859 -0.5683824 0.469577 1.3292471 0.069326386 -0.2090116 -0.022427192 -0.075144954 -0.5768553 0.97366107 -0.46089512 0.3559342 -0.29014793 1.0079985
收 -1.4886638 -1.7112108 -1.140606 0.1101405 -1.8359257 -0.3678851 -0.95522374 -1.1257094 -0.86887383 0.7074062 0.45870343 0.35301834 -2.116081 0.6460312 -1.71361 -0.64477634 -0.6784596 0.636164 0.77813995 1.8245927 0.19516319 1.7600073 0.92686826 1.5005949 -2.252084 0.8259764 2.198895 1.2970836 -1.1248527 2.8029473 2.4816096 0.7313176 2.3507857 -0.5631518 0.016910147 -1.550863 0.69897115 2.6186152 1.5022372 -0.25748813 -1.710491 -0.35701847 0.9197652 -1.3820522 -1.597337 -0.731453 0.013850397 1.6181078 -0.8906592 -0.36742663
失 1.9416506 0.13769375 -0.3839969 3.0650496 -0.24515207 2.5243645 -2.251213 -1.1695226 1.0189563 1.0910435 -3.065842 0.705433 -0.43250784 1.2552764 -0.31150046 1.5323973 2.5144055 -0.61383146 2.4194016 -0.35779276 -1.1641476 2.4883 -1.1062142 0.8103129 1.5940976 0.87869066 1.66041 -1.1070104 -1.2182852 -1.5537271 2.8644834 0.92138326 -1.4600391 -1.51006 -0.7555981 -1.1556019 -0.9401746 -0.65350026 0.23163117 0.17946364 2.6755483 3.1396816 0.0480565 0.53662294 0.46211553 -1.6847317 -1.8870678 -2.4442916 1.930242 -0.27566394
构 0.83357644 -2.1842868 1.7681947 -0.42680526 0.35306883 -2.117399 0.66967916 1.101465 -0.91253495 2.603624 -0.13978073 -2.586862 3.9040382 1.0304494 -3.6415007 -1.3821802 2.5913994 -1.0882114 -0.69886774 -1.4931946 -0.92112964 2.4489877 -0.33272022 0.105127536 3.2523909 -0.65208155 -1.133526 -1.0254653 -1.5449809 0.6573205 0.7127235 -0.10446768 0.34894234 -2.5800855 -3.792148 1.301514 2.5556576 -0.7191393 2.3102205 0.19057614 -1.1772369 2.026178 2.4643214 -0.08472592 -1.8951845 0.96757656 1.0331898 -0.53499585 1.0507324 2.034791
审 -0.81246513 -0.15861718 2.3906043 -1.8212441 1.355615 -1.6704775 -0.4440662 -2.6119938 2.3518045 -0.07389158 -3.7234993 -0.85193366 -1.1031291 3.0044813 -0.11747447 1.2612067 -0.37660083 0.2771953 -2.595357 0.44905427 0.64185965 -0.032310687 -1.0859686 -0.46057817 -1.3452256 -0.34060207 -2.182821 1.4409477 2.125591 0.2869227 0.69538987 -0.37723443 -2.0835302 1.153028 -2.7947338 -0.9441807 0.5627956 -1.9552346 0.92686784 -1.7461575 0.21709344 -1.5961587 0.5574697 0.9514512 3.1447306 0.70351195 0.2473959 1.7891518 0.4736497 2.9264612
正 -0.33492887 1.7035346 1.5621175 -2.4497936 0.4823992 0.19522564 0.37264264 0.19311474 -0.7954666 1.3173606 -0.38804704 -2.3265097 1.9884571 -1.3653977 -1.0920181 2.5435112 -1.2009563 -2.29871 -0.61879563 -0.33407062 0.9399374 2.0423338 0.45972407 -0.9105148 -0.65258914 2.5437179 1.1729356 -1.2627425 0.9722599 -0.7585028 -0.69796944 -0.93781745 0.028563615 0.29641843 -2.8922634 -3.3194714 0.5244098 -0.16293192 1.321448 2.1195166 0.76425886 1.2528237 -0.529435 -1.0631517 0.32387176 -1.3647423 0.6780617 -0.73958606 -0.633027 2.4437926
案 1.0420792 3.481404 1.4778265 0.66828746 1.6385292 -0.3100838 -2.2791588 -2.039194 -1.5126653 -1.2161746 -2.130387 -0.4629395 -2.1354063 0.79183495 -1.878074 1.2339602 -0.07691055 1.5004141 -0.28773296 -1.1559997 -3.6642048 -1.5120392 2.402769 -0.42848843 0.34254584 -2.0524764 -1.6273723 -0.13021328 2.1437726 2.677466 -0.21502356 -1.1615298 1.660465 0.4166539 -2.3575685 0.1963371 0.19608825 -2.4604685 -1.2516571 -2.2219827 2.6561224 0.18866874 2.1473603 -0.34160042 0.7389948 2.154912 -0.6463233 0.0055231815 -0.32776177 2.3237364
约 -0.30018196 -0.17015438 0.70988643 -2.380399 0.078269765 -1.002443 1.9500439 -1.7013661 -2.445288 0.056209322 -0.90833247 1.028659 0.27001995 -0.09614676 -0.886383 -2.5375104 3.2573948 -0.30486774 1.4314802 1.7820582 -0.5795955 1.0504378 -3.6089766 2.5851321 0.12244653 3.6397007 1.1573477 -1.0995326 -0.7679895 -1.923683 1.4742422 -1.5219579 1.842198 1.4667785 0.6197103 -0.6609398 -0.07897796 -1.7270063 -0.7645911 1.6157364 -1.6891992 -0.9511871 -0.9426136 0.23367757 -1.6251681 0.71603876 -0.7483741 0.048212856 -2.0909626 1.0470982
标 2.8118513 1.0842074 1.4577537 -1.3558136 -0.49165404 -2.0503783 -0.6201968 -1.8167965 -1.5910333 2.8381925 1.369001 3.5340135 1.1028432 -0.5576204 -0.33581442 -1.9675804 -0.9255606 -0.7395983 0.989395 0.12047864 -0.9198232 0.81208754 0.53911 -1.8111892 0.19730751 0.45121807 -0.45907706 -0.02850883 0.25272495 0.96425325 0.42006126 -0.116339296 -1.201744 -0.16847715 1.1041529 1.0098253 0.09852809 -2.2186422 0.30544424 -1.621124 -1.0567815 0.035602983 -0.35048312 -2.4111774 -1.7902619 -0.95437354 -1.1007954 2.488351 -1.0143824 0.77755517
商 -0.32004312 0.6680599 1.6637567 -1.9534136 -0.7818386 -0.24713957 -1.4756614 -1.4004015 -0.5607091 2.1949277 -0.014158137 1.5633147 0.44572875 -1.0630449 0.6417072 -0.800791 1.5820895 1.2056391 -1.4563289 0.88049155 -0.74757546 -1.3347079 1.1650045 0.18741438 0.38459596 -0.09657176 -1.0017829 -0.03727755 2.6128278 -0.8100188 0.66751885 -1.4631815 -1.9282187 -2.7972867 0.23257576 1.1087811 -0.3772472 -0.056229126 0.7319117 1.2374321 -1.6424167 1.6010808 0.11933661 -1.955833 -0.2560916 -5.0119514 0.11115435 0.6665911 0.86423403 0.20365086
